tree
version=v4
num_class=3
num_tree_per_iteration=3
label_index=0
max_feature_idx=25
objective=multiclass num_class:3
feature_names=Close ema20_5m ema50_5m rsi14_5m atr14_5m volume_ratio_5m trend_5m ema9_1m ema20_1m rsi14_1m trend_1m ema20_15m ema50_15m rsi14_15m trend_15m vwap_deviation dist_to_ema20_atr trend_alignment ema_slope_5m news_sentiment news_count_2hr capital_flow_net short_float days_to_earnings et_hour et_minute
feature_infos=[11.16:925.64999999999998] [11.263028384016691:920.79036347747797] [11.338779758868707:920.01999999999998] [0:90.135543511166844] [0:5.1878571428571263] [0:14.807421768986934] [-1:1] [11.186101711266803:924.99325620150387] [11.200374684364871:924.78910083833159] [0:93.217341431109503] [-1:1] [0:921] [0:921] [0:90.880908111429306] [-1:1] [-0.067811248785954709:0.061208196657115813] [-9.8503291630272134:6.4284268600966215] [-1:1] [-2.4665979836434202:1.6415267724727263] none [0:31] [-0.21595793121432943:-0.0091594596326101379] none [-1:53] [9:15] [0:55]
tree_sizes=4400 4808 4326 3077 5173 4451 4246 6276 4256 4289 5299 4663 4550 5485 4781 4044 4873 4857 4245 6423 4632 4238 4944 4550 3289 5290 4759 4672 5840 5513 4328 5303 5197

Tree=0
num_leaves=42
num_cat=0
split_feature=24 13 24 13 16 12 12 7 13 1 12 13 21 7 20 20 25 20 20 24 4 1 1 8 18 18 18 9 25 23 4 13 20 24 17 25 12 3 1 16 25
split_gain=106.852 46.8002 66.7203 115.962 53.229 32.8024 56.645 31.9655 35.3279 36.2224 56.6751 26.8538 32.7632 23.0198 22.1714 26.7504 16.3958 16.2875 14.4385 12.7209 12.5394 24.468 10.1853 27.3514 12.4578 7.88229 7.5705 11.3727 7.12562 6.05723 5.53474 5.18367 5.04329 4.12805 2.00238 3.7687 2.94419 1.97853 1.28159 1.27386 1.05518
threshold=14.500000000000002 1.0000000180025095e-35 12.500000000000002 37.563328894512331 0.93311929185737064 16.884208017628747 11.648932719080788 917.15630981580466 21.956162581445707 15.355430621037458 11.685029267034951 58.416816342633275 -0.21405088304484246 66.095305308738972 11.500000000000002 5.5000000000000009 7.5000000000000009 6.5000000000000009 2.5000000000000004 10.500000000000002 0.079999999999999696 17.042920541687355 153.65726870051463 21.950021976463159 -0.12305439307229098 0.99270054368624772 0.11512765937905912 58.254233578210531 42.500000000000007 37.500000000000007 0.083571428571429088 56.184152929103043 15.500000000000002 9.5000000000000018 0.70000000000000007 42.500000000000007 69.532102062350248 39.180433268095662 11.680765580185058 -0.12855539433330554 27.500000000000004
decision_type=2 2 2 2 2 2 2 2 2 2 2 2 2 2 2 2 2 2 2 2 2 2 2 2 2 2 2 2 2 2 2 2 2 2 2 2 2 2 2 2 2
left_child=1 5 4 14 7 6 38 8 32 10 -10 19 -13 -11 15 28 26 18 20 31 21 -5 23 -20 -24 -14 -2 -28 30 -21 -4 -6 -3 -7 -35 36 -36 -22 -1 -9 -31
right_child=16 2 3 17 11 33 -8 39 9 13 -12 12 25 -15 -16 -17 -18 -19 22 29 37 -23 24 -25 -26 -27 27 -29 -30 40 -32 -33 -34 34 35 -37 -38 -39 -40 -41 -42
leaf_value=-1.2973956382208018 -1.2872403835539616 -1.197714706788235 -1.147249136574404 -1.2784907347891403 -1.2749802410348274 -1.2513919755315679 -1.1479462108043963 -1.1779177504024747 -1.2629813124395692 -1.2740083464299581 -1.1385289503080491 -1.2676585896466579 -1.1398515751186367 -1.2398536722016071 -1.1395954305912115 -1.2911870498458 -1.2982362957489284 -1.2971579514140914 -1.2635976741804007 -1.1584154847883015 -1.2646421693245473 -1.200391241372301 -1.2255386435408135 -1.1635487742209132 -1.2806332505944995 -1.2003992866771087 -1.1887973934620566 -1.275970130118669 -1.2326511892612309 -1.2033243508864941 -1.1977953219811863 -1.2180679443257201 -1.1371580052290979 -1.2970447431532517 -1.2566121305398983 -1.2516272500314407 -1.2960845969530386 -1.2961882752797664 -1.2676585896466579 -1.1377675564792296 -1.2341280218950181
leaf_weight=10.415254294872289 9.8025922775268572 7.3519442081451398 9.496261268854143 40.742024153470993 11.027916312217714 7.3519442081451407 12.865902364253996 6.1266201734542847 17.154536485671997 72.294118046760559 19.298853546380997 6.7392821907997122 34.921734988689423 154.69715937972069 14.703888416290281 8.2709372341632825 122.53240346908569 51.463609457015991 17.460867494344715 7.04561319947243 6.1266201734542838 13.17223337292671 15.010219424962996 11.027916312217711 31.552093893289566 7.0456131994724265 7.6582752168178541 7.0456131994724274 8.2709372341632825 6.7392821907997114 15.31655043363571 6.1266201734542838 7.9646062254905701 46.868644326925278 6.1266201734542838 8.5772682428359968 26.650797754526138 51.463609457015991 6.7392821907997122 6.1266201734542829 6.1266201734542847
leaf_count=34 32 24 31 133 36 24 42 20 56 236 63 22 114 505 48 27 400 168 57 23 20 43 49 36 103 23 25 23 27 22 50 20 26 153 20 28 87 168 22 20 20
internal_value=-1.25163 -1.2444 -1.23915 -1.25698 -1.22522 -1.27238 -1.22695 -1.23545 -1.23897 -1.2433 -1.1971 -1.1906 -1.16617 -1.25076 -1.19237 -1.21148 -1.29077 -1.27224 -1.26531 -1.22299 -1.27672 -1.25926 -1.24842 -1.22487 -1.26275 -1.14975 -1.25322 -1.23079 -1.19135 -1.19589 -1.17791 -1.25429 -1.16536 -1.28672 -1.28971 -1.2812 -1.2889 -1.29295 -1.28616 -1.15668 -1.21736
internal_weight=943.5 796.461 670.865 294.078 376.787 125.596 30.0204 291.014 278.761 263.445 36.4534 85.7727 48.7066 226.991 56.0586 41.3547 147.039 238.019 186.556 37.0661 111.504 53.9143 75.0511 28.4888 46.5623 41.9673 24.5065 14.7039 33.0837 19.9115 24.8128 17.1545 15.3166 95.5753 88.2233 41.3547 32.7774 57.5902 17.1545 12.2532 12.8659
internal_count=3080 2600 2190 960 1230 410 98 950 910 860 119 280 159 741 183 135 480 777 609 121 364 176 245 93 152 137 80 48 108 65 81 56 50 312 288 135 107 188 56 40 42
is_linear=0
shrinkage=1


Tree=1
num_leaves=45
num_cat=0
split_feature=24 2 21 25 3 1 11 3 15 21 15 3 0 21 16 4 21 17 15 0 15 20 24 9 4 3 20 15 9 2 2 20 16 17 7 4 2 15 5 15 3 24 3 5
split_gain=354.794 181.559 78.2152 62.6879 38.0643 25.9862 29.8401 20.9534 18.1465 18.0291 14.5775 14.2649 13.5289 13.0013 12.2112 11.6143 10.4552 9.79024 8.99127 12.0743 8.75927 8.03305 7.26538 7.00653 6.70954 6.0402 10.8272 5.21159 5.93482 5.1214 7.54715 4.73302 5.20416 3.86748 3.84429 3.54316 3.21057 12.0931 2.73241 1.97503 0.854381 0.755979 0.501286 0.208308
threshold=14.500000000000002 378.67683689792221 -0.038444716901001028 7.5000000000000009 45.055183282282258 917.41684141145242 918.60244899275187 53.973679606447043 -0.0056653214289817946 -0.21405088304484246 0.0033362156751230308 45.687448830407014 160.40500000000003 -0.085432317336680511 1.3690899169761124 0.80285714285714371 -0.14753813785936415 0.35000000000000003 0.0093776981413791916 69.475000000000009 0.01853853105397411 5.5000000000000009 9.5000000000000018 21.113926756761419 0.31785714285714312 34.679374729133762 4.5000000000000009 0.0090623400818288877 55.97867819734806 202.98894967966331 21.594502192882093 5.5000000000000009 -0.20702155880143799 0.35000000000000003 174.99569400127874 1.1335714285714229 176.14223418123305 0.0027372153599214471 1.1124636614113774 -0.0035006360977020063 40.951397335522721 12.500000000000002 53.841652746175647 1.1975356869491607
decision_type=2 2 2 2 2 2 2 2 2 2 2 2 2 2 2 2 2 2 2 2 2 2 2 2 2 2 2 2 2 2 2 2 2 2 2 2 2 2 2 2 2 2 2 2
left_child=1 2 7 12 17 8 11 15 -3 21 22 -7 33 29 36 23 25 24 19 -15 -20 27 -10 -1 -4 -17 -27 28 -9 30 -11 32 -25 -2 -26 -18 -6 -38 -33 40 -24 -8 -13 -41
right_child=3 5 4 -5 14 6 41 9 10 13 -12 42 -14 18 -16 16 35 -19 20 -21 -22 -23 39 31 34 26 -28 -29 -30 -31 -32 38 -34 -35 -36 -37 37 -39 -40 43 -42 -43 -44 -45
leaf_value=-0.85586945816257942 -0.86124512741474235 -0.86020158782945555 -0.91565461759571143 -0.78014254746644984 -0.78070207355526211 -0.83211833256538292 -0.81379193331769917 -0.84292239974233685 -0.84239081105426228 -0.88231929302966472 -0.85872655621082639 -0.91568203654022728 -0.82091058609091239 -0.83337143606177444 -0.85277521444828708 -0.88696252413160548 -0.91273185620997221 -0.82815506203288403 -0.89649329620527818 -0.8868067592310791 -0.83565712663980507 -0.80457193557323237 -0.79454048897632457 -0.89820216230459249 -0.84336638687213772 -0.86309871999675947 -0.79454048897632468 -0.82218975781089076 -0.90298694374091615 -0.86083962207098075 -0.90962741018829463 -0.91238538693281346 -0.88413224347124519 -0.91025036670408566 -0.88564752670182578 -0.87026283671906446 -0.86124512741474235 -0.78107980064419402 -0.88402878308391242 -0.78303366467015678 -0.82218975781089076 -0.78742995785483827 -0.89491354948702828 -0.79837416964511865
leaf_weight=10.621765345335005 7.3253554105758729 14.284443050622938 11.720568656921385 146.50710821151733 19.77845960855484 8.7904264926910418 7.6916231811046627 8.0578909516334587 7.3253554105758658 61.53298544883728 9.5229620337486249 12.086836427450182 12.453104197978972 32.9640993475914 12.453104197978972 12.086836427450178 15.749514132738115 9.5229620337486249 27.836350560188293 15.383246362209318 7.3253554105758658 10.621765345335005 7.6916231811046583 218.29559123516083 8.7904264926910418 21.60979846119881 7.6916231811046591 7.3253554105758658 8.0578909516334516 13.551907509565352 44.684668004512787 62.265520989894867 98.8922980427742 9.5229620337486249 13.185639739036558 7.6916231811046591 7.3253554105758694 12.453104197978972 10.988033115863798 54.573897808790207 7.3253554105758667 8.4241587221622449 7.3253554105758658 8.7904264926910383
leaf_count=29 20 39 32 400 54 24 21 22 20 168 26 33 34 90 34 33 43 26 76 42 20 29 21 596 24 59 21 20 22 37 122 170 270 26 36 21 20 34 30 149 20 23 20 24
internal_value=-0.858727 -0.870776 -0.880363 -0.793487 -0.837884 -0.821065 -0.853512 -0.886125 -0.807997 -0.873985 -0.800121 -0.884387 -0.86008 -0.879637 -0.809087 -0.892294 -0.872507 -0.872458 -0.86441 -0.8505 -0.883648 -0.840438 -0.793607 -0.895476 -0.88518 -0.857495 -0.845115 -0.857063 -0.872734 -0.890198 -0.893892 -0.896567 -0.893841 -0.889379 -0.868516 -0.899117 -0.795509 -0.810885 -0.90824 -0.789138 -0.807366 -0.799349 -0.908327 -0.784985
internal_weight=1128.1 952.296 798.464 175.809 95.2296 153.832 44.3184 703.234 109.514 237.342 95.2296 28.2026 29.3014 203.279 52.01 465.893 64.8294 43.2196 83.5091 48.3473 35.1617 34.0629 85.7067 401.063 33.6966 41.3883 29.3014 23.4411 16.1158 119.77 106.218 390.441 317.188 16.8483 21.9761 23.4411 39.5569 19.7785 73.2536 78.3813 15.017 16.1158 19.4122 63.3643
internal_count=3080 2600 2180 480 260 420 121 1920 299 648 260 77 80 555 142 1272 177 118 228 132 96 93 234 1095 92 113 80 64 44 327 290 1066 866 46 60 64 108 54 200 214 41 44 53 173
is_linear=0
shrinkage=1


Tree=2
num_leaves=41
num_cat=0
split_feature=7 24 20 13 24 15 18 13 20 15 20 25 2 1 18 11 13 1 3 20 15 0 5 15 18 24 20 9 20 3 18 11 18 13 1 4 9 5 15 3
split_gain=135.998 111.832 117.604 37.4876 66.3685 34.1014 33.2683 29.4841 25.5481 25.1041 37.7585 23.5365 13.5004 44.3427 12.1612 11.8327 11.77 11.1073 11.0668 12.8101 10.963 10.1464 9.32577 8.60807 7.84466 6.9119 6.62735 5.13632 4.80395 13.2398 12.3711 4.79504 3.71811 1.30471 3.08584 1.06457 0.785442 0.505971 0.445575 0.228595
threshold=204.05427682925281 14.500000000000002 12.500000000000002 43.881686183481023 11.500000000000002 -0.020279813665820042 -0.0086912380218150571 71.266234230430953 4.5000000000000009 -0.0035006360977020063 6.5000000000000009 7.5000000000000009 11.623360738021741 15.355430621037458 -0.24854782755040419 17.105028004131896 41.805771867466198 15.911301686771639 59.812604928606568 5.5000000000000009 -0.0065552844144790871 21.470000000000002 1.0723791718647246 -7.5264382354399461e-05 -0.31191087879882801 10.500000000000002 1.0000000180025095e-35 38.366892599875356 19.500000000000004 44.919484257566133 -0.43247895586108903 15.272648218933812 0.23280641505985203 48.175708254346425 175.81486715878319 3.7617857142857241 69.42581101245689 0.96437536249522271 0.0029026974618412455 74.78638171822918
decision_type=2 2 2 2 2 2 2 2 2 2 2 2 2 2 2 2 2 2 2 2 2 2 2 2 2 2 2 2 2 2 2 2 2 2 2 2 2 2 2 2
left_child=1 2 3 5 18 8 14 21 27 10 25 22 23 31 15 -6 -15 -10 19 24 -12 -8 32 -7 -5 -2 -16 -1 33 30 -30 -14 -3 38 -35 36 -11 -27 -4 -20
right_child=9 11 28 4 6 12 7 -9 17 35 20 -13 13 16 26 -17 -18 -19 39 -21 -22 -23 -24 -25 -26 37 -28 -29 29 -31 -32 -33 -34 34 -36 -37 -38 -39 -40 -41
leaf_value=-1.2328674159791144 -1.2241153257728317 -1.2203014343812633 -1.2836816644386015 -1.2132616270486434 -1.1665015051318852 -1.1296300335997467 -1.2499205368285335 -1.1393392174187154 -1.1327255918340124 -1.2835356305815704 -1.124764151602444 -1.2838376612551072 -1.230874147431013 -1.1796458103179703 -1.2041587642047722 -1.2313927113920484 -1.2200171231950432 -1.2282628746128315 -1.2816536521949995 -1.1868628565814785 -1.2122452228775999 -1.2157998059971344 -1.1725327929918536 -1.1885966114883131 -1.2608243247793076 -1.2662375416302614 -1.1502344830208946 -1.2807421735948052 -1.2674460718238587 -1.2834491039838618 -1.1904261978494515 -1.2831664581084175 -1.2744392280033812 -1.2362243148443997 -1.2827055162800538 -1.2597088421896994 -1.2656985650478974 -1.2814135182020374 -1.2693143482367728 -1.266477787771813
leaf_weight=7.7253386378288296 7.4163250923156729 6.1802709102630633 36.772611916065216 10.506460547447203 12.669555366039278 15.450677275657656 39.862747371196747 9.5794199109077436 6.1802709102630597 145.85439348220825 6.1802709102630606 90.540968835353851 6.4892844557762173 152.34367793798447 7.4163250923156729 16.06870436668396 21.012921094894409 6.1802709102630615 25.957137823104858 8.6523792743682844 8.9613928198814374 47.588086009025574 6.1802709102630606 11.433501183986662 45.734004735946655 11.742514729499815 34.300503551959991 18.540812730789185 9.5794199109077471 19.467853367328644 11.124487638473509 12.360541820526121 6.1802709102630615 6.1802709102630597 7.7253386378288269 6.4892844557762137 8.6523792743682844 23.485029458999634 10.815474092960356 6.1802709102630606
leaf_count=25 24 20 119 34 41 50 129 31 20 472 20 293 21 493 24 52 68 20 84 28 29 154 20 37 148 38 111 60 31 63 36 40 20 20 25 21 28 76 35 20
internal_value=-1.23698 -1.22665 -1.21848 -1.2089 -1.22216 -1.19532 -1.20309 -1.22218 -1.23851 -1.27156 -1.24318 -1.27332 -1.18768 -1.19243 -1.17694 -1.20247 -1.1845 -1.17964 -1.25502 -1.24302 -1.17571 -1.23141 -1.22227 -1.15425 -1.25182 -1.26734 -1.1596 -1.26651 -1.26764 -1.25391 -1.22628 -1.26496 -1.24705 -1.27648 -1.26183 -1.28171 -1.28259 -1.27659 -1.2806 -1.27899
internal_weight=951.762 732.98 623.898 522.233 264.516 257.717 167.485 97.0303 38.6267 218.782 57.7855 109.082 219.091 192.206 70.4551 28.7383 173.357 12.3605 97.0303 64.8928 15.1417 87.4508 18.5408 26.8842 56.2405 42.6439 41.7168 26.2662 101.665 40.1718 20.7039 18.8498 12.3605 61.4937 13.9056 160.996 154.507 35.2275 47.5881 32.1374
internal_count=3080 2372 2019 1690 856 834 542 314 125 708 187 353 709 622 228 93 561 40 314 210 49 283 60 87 182 138 135 85 329 130 67 61 40 199 45 521 500 114 154 104
is_linear=0
shrinkage=1


Tree=3
num_leaves=28
num_cat=0
split_feature=15 13 13 7 2 11 12 11 12 7 13 15 4 15 2 14 3 20 9 8 25 20 25 23 4 3 5
split_gain=53.4118 35.2896 40.6087 33.6245 46.4723 81.0613 44.4968 31.3305 66.3411 29.7094 32.7308 24.2344 22.0583 12.8791 10.7519 20.1277 6.2584 5.2101 4.84835 4.56526 3.50638 2.46704 1.41078 2.87537 0.88592 0.359627 0.276916
threshold=-0.020279813665820042 1.0000000180025095e-35 17.742060092079885 915.78195041010792 378.12275828402511 373.99005525004009 919.13768549648989 15.58249328215256 11.685029267034951 67.50115275796405 17.742060092079885 -0.0062474792915993725 0.058928571428571448 0.0033362156751230308 30.151770214124465 -1.0000000180025095e-35 33.825969955241341 13.500000000000002 56.943743312796265 904.42147708117204 37.500000000000007 15.500000000000002 42.500000000000007 37.500000000000007 1.1992857142857118 35.279136352644457 0.69287339776224088
decision_type=2 2 2 2 2 2 2 2 2 2 2 2 2 2 2 2 2 2 2 2 2 2 2 2 2 2 2
left_child=9 14 21 4 5 7 20 8 -4 10 17 -9 -12 16 15 18 19 -1 26 -6 -5 -3 -16 -24 -7 -14 -2
right_child=1 2 3 6 13 24 -8 11 -10 -11 12 -13 25 -15 22 -17 -18 -19 -20 -21 -22 -23 23 -25 -26 -27 -28
leaf_value=0.049133830647245136 -0.045274380380110307 0.048485600754811828 -0.010874747479914524 0.10248790725025894 -0.034078650692388128 0.10799019031519136 -0.036039642012010292 -0.026225979585105332 0.07153705137252786 0.1043976183360059 0.06804895395635209 -0.00044913479048151056 -0.045631396155574086 0.024147916525972792 -0.043989897958965171 0.058206434366225579 -0.045993613223370672 0.1039101323011673 0.0057994876775748381 0.02048598060983919 0.059576301081922682 0.090702898311652028 -0.0088723671234503376 -0.045471092793443503 0.077775948639192127 -0.028636932661674181 -0.028088964196930657
leaf_weight=10.72603088617325 14.042481005191808 6.6477147638797787 57.593966752290726 14.145716190338137 8.7922599315643293 14.00130069255829 10.794203847646711 120.71723717451096 42.161086648702621 15.697555363178251 6.3592359721660641 373.45309653878212 10.652447015047075 8.3280306160449964 55.573175460100174 8.9322685301303846 77.197932004928589 8.4165541231632215 7.5613315403461447 6.5402454137802115 9.199692636728285 11.012089580297468 10.861065298318865 11.486214756965635 6.6605105698108664 9.0119535326957685 5.9959551393985739
leaf_count=34 47 21 189 44 29 44 36 396 133 50 20 1223 35 27 186 29 257 26 25 21 29 34 36 38 21 30 20
internal_value=0 -0.00313404 0.000724457 -0.00103931 -0.00336189 0.00179458 0.0473554 -0.00159168 0.023943 0.0452574 0.0244075 -0.00676012 -0.0119449 -0.0348034 -0.0290216 -0.00645209 -0.0401835 0.0738924 -0.027693 -0.0104976 0.0861173 0.075455 -0.0395171 -0.0280252 0.0989127 -0.0382803 -0.0405454
internal_weight=942.561 881.698 767.245 749.585 715.446 614.587 34.1396 593.925 99.7551 60.8638 45.1662 494.17 26.0236 100.858 114.452 36.532 92.5304 19.1426 27.5998 15.3325 23.3454 17.6598 77.9205 22.3473 20.6618 19.6644 20.0384
internal_count=3080 2885 2504 2449 2340 2006 109 1941 322 195 145 1619 85 334 381 121 307 60 92 50 73 55 260 74 65 65 67
is_linear=0
shrinkage=0.05


Tree=4
num_leaves=48
num_cat=0
split_feature=24 11 21 25 15 13 1 12 18 18 15 15 0 0 15 24 0 12 21 8 13 21 11 0 11 16 0 15 16 9 9 13 16 16 15 13 16 0 1 11 18 5 8 0 21 8 13
split_gain=314.597 163.416 71.044 54.6731 24.7644 26.8895 24.4151 34.8547 23.8497 19.4287 15.9153 12.7881 12.4415 10.9485 9.98138 13.6752 10.4909 13.7013 9.92904 16.5072 15.4104 11.7668 20.8988 9.64211 9.07729 8.13245 6.0313 4.83661 4.64363 5.32366 4.4944 3.59732 3.20011 3.08206 2.76262 5.73643 3.22583 2.0086 3.26594 1.99088 1.60044 1.47968 1.12374 6.39502 1.11868 0.872988 0.811827
threshold=14.500000000000002 378.23414676245608 -0.038444716901001028 7.5000000000000009 -0.0014171284371285618 39.142272386507265 917.41684141145242 919.13768549648989 -0.015490711864577214 0.47672670417702373 -0.0052797537924756804 0.0033362156751230308 160.40500000000003 111.48500000000001 -0.0093133680929759193 11.500000000000002 198.54000000000005 202.1711913358979 -0.21405088304484246 153.74088652372922 65.736024865815111 -0.10549431040667843 203.10220221891868 156.77000000000001 69.446564361300943 -0.51208846091617011 175.60500000000005 0.00043820295430038058 1.0163882735933052 58.709289994327094 23.154742377401494 52.603269822254923 -2.5048363893630756 -1.5344710298964126 -0.0072643225868856513 46.952385478541537 -1.7566180166879717 905.18500000000006 914.78133832636229 152.95465469695358 -0.48999793896420502 0.65732891127945969 177.9713595901932 175.85500000000005 -0.076715463184026444 382.67044948150158 51.231959515146563
decision_type=2 2 2 2 2 2 2 2 2 2 2 2 2 2 2 2 2 2 2 2 2 2 2 2 2 2 2 2 2 2 2 2 2 2 2 2 2 2 2 2 2 2 2 2 2 2 2
left_child=1 2 8 12 5 40 10 25 13 27 -3 33 31 30 16 23 32 -18 19 39 21 22 -20 -16 -23 -8 -7 -6 -21 -30 -1 -2 -15 -12 36 -36 -32 45 -39 -10 -4 -9 43 -29 -22 -35 -17
right_child=3 6 4 -5 9 26 7 41 18 -11 11 -13 -14 14 15 46 17 -19 20 28 44 24 -24 -25 -26 -27 -28 42 29 -31 34 -33 -34 37 35 -37 -38 38 -40 -41 -42 -43 -44 -45 -46 -47 -48
leaf_value=-0.0013463814749354816 -0.0025058003361972067 -0.001135095453699507 -0.026918914777695341 0.073262983964146003 0.018100258854848842 0.0068141682731421961 0.0058850917923773567 0.03403921234546075 -0.050706433918137228 -0.026833629996705771 0.028281258059710174 0 0.036019469499604224 -0.0076205325298572815 0.041719736527841528 -0.054083977114389663 0.061250176130416868 -0.018111401811479608 -0.030167222122552181 -0.0045373061842284559 -0.054351606320765966 0.0065633660770695454 0.037033747082977367 -0.027628064520862625 -0.027212121704820427 -0.055554210098203841 0.063534744995039957 0.073823161615336641 0.059325588153238573 0.011093767035694374 -0.036288030386780794 -0.049912795800289698 -0.054920204660802899 0.059677650597344284 -0.02685311444950509 -0.051079831176465085 -0.052794665796174589 0.020651390055859517 0.067149267873478011 -0.01478004310028265 -0.056159904755734694 0.065377883336908305 0.074001743205230938 0.014931766235313285 -0.033624118043847843 0.074212764217073388 -0.037948542842517224
leaf_weight=7.281169742345809 7.3242119550705018 14.25846093893051 8.7048614621162432 148.75603213906288 7.7219102084636679 9.9056908190250414 7.7076111137867001 7.3883316218853023 9.8181758522987383 8.4031624495983106 7.3669103682041159 9.5167458951473218 12.533911526203154 7.2619818150997162 8.4300821125507372 28.233389616012573 10.913237482309343 10.537755936384199 136.80649268627167 9.5094397068023664 29.359737664461136 74.608315587043762 12.488451302051542 12.044233381748198 26.973634123802185 16.646731287240982 9.2393212020397169 13.712132602930071 12.160611718893053 11.395447075366972 50.668881237506866 9.4170500040054304 7.6073366999626142 27.422211617231369 69.610237598419189 39.510707259178162 87.321269065141678 7.3905367255210903 8.9093675315380079 7.2774466872215262 14.185634791851042 11.855255365371702 16.30201929807663 7.3651039302349082 11.254002451896666 36.70645996928215 16.679620236158371
leaf_count=20 20 39 24 400 21 27 21 20 27 23 20 26 34 20 23 78 30 29 376 26 81 204 34 33 74 46 25 37 33 31 140 26 21 74 192 109 241 20 24 20 39 32 44 20 31 99 46
internal_value=4.7818e-06 -0.0114402 -0.0206235 0.060978 0.0197675 -0.00884635 0.0354598 0.00359521 -0.0261632 0.0423158 0.0478522 0.0550751 -0.00131265 -0.0352306 -0.0212291 -0.0328887 -6.84417e-05 0.0221288 -0.0166902 0.00376714 -0.0202278 -0.0155603 -0.0244914 0.00074613 -0.002374 -0.035961 0.034635 0.055341 0.024462 0.0363499 -0.0407983 -0.0296074 -0.0323589 0.0610362 -0.0419396 -0.0357097 -0.0468004 0.0639355 0.046626 -0.0358786 -0.045423 0.0538425 0.0628321 0.0536483 -0.0488276 0.0681778 -0.0483004
internal_weight=1126.49 948.46 793.291 178.031 95.5398 42.0355 155.169 43.5979 697.752 53.5043 111.571 97.3122 29.2752 356.1 101.708 65.3873 36.3203 21.451 341.652 50.1611 291.491 250.877 149.295 20.4743 101.582 24.3543 19.145 45.1012 33.0655 23.5561 254.392 16.7413 14.8693 87.7955 247.111 109.121 137.99 80.4286 16.2999 17.0956 22.8905 19.2436 37.3793 21.0772 40.6137 64.1287 44.913
internal_count=3080 2600 2179 480 260 115 421 119 1919 145 302 263 80 982 280 180 100 59 937 137 800 688 410 56 278 67 52 122 90 64 702 46 41 237 682 301 381 217 44 47 63 52 101 57 112 173 124
is_linear=0
shrinkage=0.05


Tree=5
num_leaves=41
num_cat=0
split_feature=8 24 20 13 24 15 16 21 1 1 15 20 25 20 20 11 7 4 4 24 3 20 15 7 21 16 20 24 20 3 18 16 21 4 9 16 9 13 16 15
split_gain=124.644 100.947 105.623 32.1746 60.2681 31.6113 30.4304 29.7659 25.3769 23.8655 23.5582 34.913 22.1202 20.5672 20.1565 22.7729 19.6019 16.8509 16.8123 13.2266 10.498 9.78583 9.1493 8.55115 7.35296 7.12582 6.87151 6.36326 6.28396 12.3654 11.1698 5.69645 5.58367 1.04087 0.834648 0.575175 0.328805 0.326105 0.2381 0.191132
threshold=203.93805400796967 14.500000000000002 13.500000000000002 43.881686183481023 11.500000000000002 -0.020279813665820042 0.72393280487543354 -0.20266782730413382 199.95286966835673 15.355430621037458 -0.0035006360977020063 6.5000000000000009 7.5000000000000009 4.5000000000000009 1.0000000180025095e-35 11.739603777821554 177.95934424608049 0.127142857142857 0.10428571428571455 9.5000000000000018 59.812604928606568 5.5000000000000009 -0.0065552844144790871 16.757333217917267 -0.085432317336680511 -0.82143444094275042 2.5000000000000004 10.500000000000002 19.500000000000004 44.919484257566133 -0.43247895586108903 -2.1611188925997573 -0.14753813785936415 3.7617857142857241 69.42581101245689 -2.8085839374139612 53.53890845732672 48.175708254346425 2.8775135261159339 -0.0061455356014335407
decision_type=2 2 2 2 2 2 2 2 2 2 2 2 2 2 2 2 2 2 2 2 2 2 2 2 2 2 2 2 2 2 2 2 2 2 2 2 2 2 2 2
left_child=1 2 3 5 20 13 14 9 24 39 11 27 32 31 15 -6 -16 -15 -11 26 21 25 -13 -21 -8 -5 -9 -2 37 30 -30 -1 -3 34 -12 -29 -37 -4 -22 -7
right_child=10 12 28 4 6 7 8 19 -10 18 33 22 -14 17 16 -17 -18 -19 -20 23 38 -23 -24 -25 -26 -27 -28 35 29 -31 -32 -33 -34 -35 -36 36 -38 -39 -40 -41
leaf_value=0.0084686382569411755 0.010703010389792532 0.042772059704285353 -0.044882314092287795 0.013008922941949358 0.078399360485793088 -0.04519815334314916 0.0060178837324664372 -0.020424154652175931 0.090884912675502472 0.088567307771252185 -0.045621991944864514 0.10243126174922071 -0.045848400995379547 0.09672222022169949 0.074692782468253643 -0.018785979953286056 0.016383773393993717 -0.013723277859032849 0.018930586269126849 0.083344014755317164 -0.043898137495531876 0.040252386140903526 0.023719591830085596 0.054719628284743582 -0.031382852568618905 -0.025969290936950409 0.045507715689833139 -0.023650237393105344 -0.029496242034574766 -0.045347482011742817 0.043709765556498026 -0.043364448410543224 -0.011432569148222875 -0.021867870383471825 -0.026655273838173617 -0.04578361436140535 -0.028608466048722331 -0.032321053167916163 -0.028533751615147426 -0.028385316976440145
leaf_weight=7.1081360578536978 7.7075910568237296 8.7640049159526843 43.471641570329666 16.49715057015419 8.5980808138847369 8.4702785313129407 38.358870595693588 7.5810500383377057 7.4269707500934592 10.86883822083473 141.16306045651436 6.5076638460159293 87.565465539693832 7.4588734507560712 60.182074069976807 19.424133062362671 19.339405059814453 6.190030962228775 43.354016989469528 36.695499688386917 25.907271146774296 9.5331498682498914 9.0483565032482129 105.99685707688332 19.759997218847275 38.925886064767838 7.9289757013320923 6.9517330527305559 9.3840332031250018 18.754768282175064 11.378117501735685 18.877349615097049 9.9520444571971876 6.3868682384490958 7.9264890253543845 22.010788381099708 6.0652971863746634 11.227881163358687 6.056537836790084 6.0359497368335715
leaf_count=23 25 28 144 53 27 28 123 24 23 34 471 20 293 23 189 62 61 20 137 114 86 30 29 333 64 127 25 23 31 63 36 62 32 21 26 73 20 37 20 20
internal_value=-9.05814e-07 0.00974359 0.017345 0.0259237 0.0137218 0.0382547 0.0314022 0.0454489 0.00445216 0.0178349 -0.0336123 -0.00638921 -0.0352985 -0.00282144 0.0477619 0.0110284 0.0606134 0.046534 0.0331185 0.057395 -0.017802 -0.00614555 0.0574109 0.0621691 -0.00664428 -0.0142745 0.0130366 -0.0298095 -0.0314344 -0.0159794 0.0103998 -0.0290161 0.0137761 -0.0437759 -0.0446657 -0.0388714 -0.0423654 -0.0424589 -0.0412409 -0.038787
internal_weight=950.841 737.073 630.792 536.575 270.01 266.566 173.09 226.931 65.5458 68.7291 213.768 58.2914 106.282 39.6344 107.544 28.0222 79.5215 13.6489 54.2229 158.202 96.92 64.9562 15.556 142.692 58.1189 55.423 15.51 42.7354 94.2164 39.5169 20.7622 25.9855 18.716 155.476 149.09 35.0278 28.0761 54.6995 31.9638 14.5062
internal_count=3080 2372 2019 1708 865 843 549 715 210 219 708 190 353 128 339 89 250 43 171 496 316 210 49 447 187 180 49 141 311 130 67 85 60 518 497 116 93 181 106 48
is_linear=0
shrinkage=0.05


Tree=6
num_leaves=39
num_cat=0
split_feature=24 15 13 24 13 15 20 20 13 15 4 0 1 0 0 25 24 20 4 15 20 13 0 14 18 21 0 18 9 15 15 15 4 4 24 25 9 4
split_gain=93.7036 58.8671 48.8152 63.3964 68.6938 55.1332 35.1861 36.9363 24.9826 24.352 23.4983 27.8089 22.0868 34.5057 21.8577 15.2908 12.9308 11.7955 11.4512 11.252 15.8367 11.5777 11.2356 18.5932 8.93719 7.99795 15.2635 6.84751 10.2197 5.69967 4.54992 3.49312 3.31169 3.21962 1.80846 3.79991 1.71956 0.952784
threshold=14.500000000000002 -0.021641254173556071 1.0000000180025095e-35 12.500000000000002 37.563328894512331 -0.0020739469016631666 13.500000000000002 23.500000000000004 51.390511893725638 0.032068211563474454 0.10357142857142897 21.835000000000004 15.355430621037458 11.675000000000002 15.925000000000002 7.5000000000000009 9.5000000000000018 6.5000000000000009 0.089999999999999677 0.0065630085111824674 4.5000000000000009 58.416816342633275 68.785000000000011 -1.0000000180025095e-35 -0.12305439307229098 -0.076715463184026444 22.495000000000001 0.11512765937905912 58.254233578210531 -0.0072643225868856513 0.0052122624625006121 -0.036488089056194557 0.59214285714285875 0.071428571428571244 11.500000000000002 37.500000000000007 35.469698254731732 0.31785714285714312
decision_type=2 2 2 2 2 2 2 2 2 2 2 2 2 2 2 2 2 2 2 2 2 2 2 2 2 2 2 2 2 2 2 2 2 2 2 2 2 2
left_child=1 14 22 5 25 6 12 32 10 17 30 -12 13 -4 18 27 -14 24 -1 20 -10 -21 23 29 -6 26 -5 -2 -29 -3 -7 -16 -8 -31 -24 -36 -33 -27
right_child=15 2 3 4 9 8 7 -9 19 -11 11 -13 16 -15 31 -17 -18 -19 -20 21 -22 -23 34 -25 -26 37 -28 28 -30 33 -32 36 -34 -35 35 -37 -38 -39
leaf_value=0.05013270674523454 -0.034508706640474701 0.017856212375682308 -0.035088573462428559 0.073404734789998427 -0.0025457180440026537 0.047038762859747944 0.1010121461655864 -0.04526137782700887 0.065088848977911049 0.076071493575119831 -0.028008624498672453 0.029244499955387887 0.023345590008760065 0.093472435810247487 0.048018922671229182 -0.045153983973700212 -0.030190557654770418 -0.044105176344065147 -0.044181971954649929 0.021996630792233747 0.016650312242874939 0.091607355897243281 -0.044249112595683988 0.053729827009178971 -0.025481208603128747 0.10080406273755627 -0.01949251410987753 0.058282787045764221 -0.023904736626408588 -0.0017707292799414411 0.10378164964390812 0.062620008428049365 0.054058642437747641 -0.044954777603206847 -0.040909789850831685 0.0034485070158234814 0.096942936312341313 0.068329273418899272
leaf_weight=6.4626296460628492 9.5256870985031146 6.0829326212406185 9.6749942898750323 10.402087420225145 71.569817662239075 7.2649818658828726 12.843320578336721 7.3193697929382315 36.871726363897324 6.3489545881748191 29.532025396823883 74.094248622655869 12.775879532098768 11.03712624311447 7.576464474201198 116.29053953289986 86.944708317518234 48.972254991531372 6.199849009513855 7.8205282986164084 31.832456320524216 29.65195769071579 50.913386911153793 9.7553198933601362 106.36043125391006 7.2270638942718488 7.4593824446201316 7.9092307984828931 6.9837000966072083 5.8482587039470699 8.4836061000823957 6.5837574899196687 6.7288843393325797 19.634734004735947 13.911049991846086 7.0417090058326712 20.991962492465973 7.5449119210243225
leaf_count=20 32 20 32 31 235 23 39 24 115 20 96 237 42 33 23 400 287 168 21 25 102 90 174 31 353 22 24 25 23 20 27 20 21 67 48 24 63 23
internal_value=7.21619e-07 0.00662724 0.00319574 0.00856522 -0.0100736 0.0218685 -0.00188929 0.0496741 0.0374025 -0.0196011 0.0216119 0.0128687 -0.0134761 0.033299 0.0603684 -0.0376055 -0.0232651 -0.0223325 0.00357788 0.0550719 0.0427755 0.0773098 -0.027043 -0.00610254 -0.0162904 0.0577245 0.0344377 -0.0014154 0.0195069 -0.0248627 0.078383 0.0806154 0.0854806 -0.0352853 -0.0389886 -0.025819 0.0891848 0.0851245
internal_weight=940.472 799.763 751.948 638.761 265.885 372.876 147.324 26.8916 225.552 233.251 119.375 103.626 120.433 20.7121 47.8147 140.709 99.7206 226.903 12.6625 106.177 68.7042 37.4725 113.187 41.3212 177.93 32.6334 17.8615 24.4186 14.8929 31.5659 15.7486 35.1522 19.5722 25.483 71.8661 20.9528 27.5757 14.772
internal_count=3080 2600 2453 2069 876 1193 478 84 715 776 383 333 394 65 147 480 329 756 41 332 217 115 384 138 588 100 55 80 48 107 50 106 60 87 246 72 83 45
is_linear=0
shrinkage=0.05


Tree=7
num_leaves=59
num_cat=0
split_feature=24 2 0 2 18 13 18 7 12 13 4 13 13 13 11 0 3 17 2 0 5 0 0 13 24 0 7 11 0 4 9 1 2 9 13 3 16 0 3 7 9 13 8 11 13 5 0 13 18 18 3 18 18 18 3 16 0 2
split_gain=285.224 148.433 44.1413 41.6975 24.447 22.3478 21.1084 17.5797 23.8059 12.3788 14.5701 15.6811 9.7765 16.6446 9.25242 18.9686 8.97019 8.3768 8.23832 14.7341 5.48787 5.31795 7.07465 4.53601 4.47925 4.31011 13.1557 14.8547 7.7561 6.2695 4.1358 3.50236 3.33371 3.26777 3.22968 6.58909 6.44396 2.93241 2.84659 3.00192 2.80185 2.65819 2.36169 2.00481 2.70735 1.33485 1.0974 1.04923 0.621627 0.37981 0.2844 0.241684 0.239739 0.453788 0.985953 0.422906 0.224438 0.0140976
threshold=14.500000000000002 378.67683689792221 153.94500000000002 178.34319364565786 -0.10266391834984241 44.95530098186034 -0.070251295016800427 915.78195041010792 919.13768549648989 52.799903820695846 0.36321428571428788 68.610872069125847 41.805771867466198 47.865444138176564 200.77007060477953 200.61000000000004 46.733028087075461 -0.69999999999999984 202.98894967966331 204.78500000000005 0.80034548389028637 905.18500000000006 914.5150000000001 65.736024865815111 10.500000000000002 15.775 17.300623186501468 16.987662320494323 11.445000000000002 0.16214285714285701 31.451085366661662 22.188880242592436 918.00775446006026 52.258706979064833 46.799390323335096 44.204970235517358 -0.43537011122910402 65.245000000000019 56.725979694815976 382.28217060869179 66.270993875945024 40.157921884896361 154.40679946460088 17.14152786853678 37.563328894512331 0.29934148342028272 918.12500000000011 26.092829125211669 -0.24854782755040419 0.45673919396376161 39.370532372358248 -0.75962533405185828 0.16477709945887001 0.47672670417702373 61.500730001403248 0.54794021167533102 200.61000000000004 176.07249177028191
decision_type=2 2 2 2 2 2 2 2 2 2 2 2 2 2 2 2 2 2 2 2 2 2 2 2 2 2 2 2 2 2 2 2 2 2 2 2 2 2 2 2 2 2 2 2 2 2 2 2 2 2 2 2 2 2 2 2 2 2
left_child=1 2 6 4 12 21 30 17 32 16 -11 -12 24 -14 56 -16 -6 -7 48 -20 31 47 -23 25 -4 28 27 -27 -8 -28 37 -2 -9 -30 35 41 -37 43 39 -19 51 -32 -18 44 -1 -33 -24 50 -17 -25 -3 -22 -53 54 55 -54 -5 -26
right_child=20 5 3 14 9 7 23 8 -10 10 11 -13 13 -15 15 18 42 38 19 -21 40 22 46 49 57 26 29 -29 33 -31 34 45 -34 -35 -36 36 -38 -39 -40 -41 -42 -43 -44 -45 -46 -47 -48 -49 -50 -51 -52 52 53 -55 -56 -57 -58 -59
leaf_value=0.0032383059742921595 0.01688176182395278 0.041351267804003708 -0.0058475011776317216 -0.055067806402628719 0.00067886588816406482 -0.0069367613285305808 0.018605101627645181 -0.01556859978333641 0.05804880283657065 0.070845588338320817 -0.03333938341075756 0.039629415436772848 0.050794755718751507 -0.031177406509480417 0.05144773384277114 -0.034231586299354508 0.031118760594472911 0.029897429280688011 0.012921401300934627 -0.032885915660199987 0.052542927653878413 -0.0033261977142089033 0.065154443455425912 -0.033452709674231508 -0.041034819319817832 -0.0068294901177921793 -0.039035050236867187 0.051238509575417451 -0.01725651261155689 -0.014442170637823916 -0.046074672904331551 0.031777441450040612 -0.054305732119575581 -0.045980872959058977 -0.053423367931016312 0.0194655443048256 -0.030383525296404021 0.0056908047332445699 0.021070047097655555 0.065064855211706824 0.035933000394936424 -0.029788111483155161 0.063941658134228307 -0.048723728400244706 -0.034185074511304502 0.060532631382275603 0.037143127443619944 0.070358207506675305 -0.055489209534542172 -0.053884288075521716 0.059607093362664267 0.068764789294701936 0.050408804160820136 0.067740165828595864 0.039539598573332654 0.068984449841034565 -0.039035194120559252 -0.054750333001352028
leaf_weight=7.5560259819030824 12.171739757061003 7.7689267098903683 9.8375009298324603 17.994902700185779 8.4179655313491804 9.5814290940761548 7.2457459270954123 10.088291645050051 8.585514158010481 7.8187105357646933 18.975376814603809 11.866953402757643 12.563765197992327 11.964576423168181 9.1115406751632673 7.2252987325191524 7.7138326466083518 10.362987101078035 28.399496674537659 45.19761523604393 11.186222434043883 8.1183677911758441 9.319071829319002 7.1898179054260236 7.2275985479354885 55.999717950820923 39.933201193809509 13.584237039089201 15.828894793987272 77.246365010738373 114.09877869486809 7.4208174943923977 13.951191693544386 30.713137745857239 43.579504996538162 8.6101512312889081 24.398111253976822 7.2156509757041922 10.355286478996275 18.669752925634384 10.714204370975493 35.804862022399902 33.165837645530701 9.3165588378906232 12.205229073762892 14.529057115316389 8.5347579121589643 29.502124309539795 16.26503112912178 7.8929423391819 10.469387799501417 62.102143496274948 10.060117751359941 27.297146260738373 9.2693426311016065 14.215974748134611 7.1091448962688437 9.015182286500929
leaf_count=21 33 21 27 50 23 26 20 28 23 21 52 32 34 33 25 20 21 28 78 125 30 22 25 20 20 154 111 37 44 213 319 20 39 85 122 24 68 20 28 50 29 100 89 26 34 39 23 79 45 22 28 166 27 73 25 38 20 25
internal_value=7.27097e-06 -0.010966 -0.0197726 -0.00335084 0.0157539 0.0336854 -0.0283092 0.0155422 -0.0127576 0.0316868 0.0103013 -0.00506484 -0.011847 0.0106426 -0.0235473 -0.0169929 0.0483022 0.0344859 -0.0235137 -0.0151485 0.057865 0.0536525 0.0347911 -0.0180316 -0.0331492 -0.0163172 -0.0126655 0.0044921 -0.0288567 -0.0228919 -0.0382774 0.0392061 -0.0383885 -0.0363769 -0.0408202 -0.0377626 -0.0172099 -0.0222029 0.0446809 0.0528295 0.062196 -0.0422404 0.0579612 -0.0292919 -0.0196797 0.051226 0.052324 0.063715 -0.0493354 -0.0447585 0.0523713 0.0642282 0.0652072 0.0613871 0.0558827 0.0617301 -0.0508988 -0.0492417
internal_weight=1122.56 943.596 788.289 269.87 138.567 155.307 518.419 81.5945 32.625 87.9587 38.661 30.8423 50.6086 24.5283 131.303 106.199 49.2976 48.9695 97.0874 73.5971 178.967 73.7126 25.9722 255.634 26.0803 240.551 186.764 69.584 53.7878 117.18 262.785 34.1216 24.0395 46.542 226.491 182.912 33.0083 36.2935 39.388 29.0327 144.845 149.904 40.8797 29.0778 19.7613 21.9499 17.8538 47.7404 23.4903 15.0828 18.2383 134.131 122.945 60.8426 33.5454 24.2761 25.104 16.2428
internal_count=3080 2600 2180 740 377 420 1440 222 90 238 105 84 139 67 363 293 133 132 268 203 480 198 70 706 72 664 515 191 149 324 734 92 67 129 633 511 92 101 106 78 388 419 110 81 55 59 48 128 65 42 49 359 329 163 90 65 70 45
is_linear=0
shrinkage=0.05


Tree=8
num_leaves=39
num_cat=0
split_feature=8 24 21 15 15 2 0 2 0 16 15 25 21 11 24 0 11 13 3 11 0 15 15 13 13 5 18 7 24 18 5 1 8 5 15 9 18 24
split_gain=114.653 89.7219 63.4854 23.6158 36.6542 45.3773 37.5741 32.4254 25.5013 22.928 22.6172 20.6943 19.8344 33.0136 16.0353 15.1929 20.6189 13.4612 12.338 13.0708 11.5102 12.8992 10.8881 9.76451 20.0435 8.07629 5.2229 3.81684 3.62586 3.54983 2.16413 1.25026 2.48242 1.05455 0.820371 0.707496 0.368358 0.0942479
threshold=203.93805400796967 14.500000000000002 -0.038444716901001028 -0.021641254173556071 -0.0016099134270235696 17.192950590265021 21.835000000000004 156.67062433985114 15.895000000000001 -1.8900218775417994 -0.0035006360977020063 7.5000000000000009 -0.14753813785936415 11.670914206030121 13.500000000000002 11.765000000000002 11.572584381760771 27.483530491157079 44.204970235517358 175.87972512281442 376.21500000000009 -0.0058035595814212495 0.0047662671123538313 24.887093923174174 34.613847973274254 1.0723791718647246 -0.27156413615968039 176.16129538433708 10.500000000000002 0.23280641505985203 0.74878333508517769 381.21168523486887 904.42147708117204 0.96916075629263554 -0.0072643225868856513 69.42581101245689 -0.11708182898949146 9.5000000000000018
decision_type=2 2 2 2 2 2 2 2 2 2 2 2 2 2 2 2 2 2 2 2 2 2 2 2 2 2 2 2 2 2 2 2 2 2 2 2 2 2
left_child=1 2 3 8 9 15 30 -8 17 23 14 25 13 -11 20 16 -6 -1 19 -4 -2 -22 -17 -5 -25 29 -23 34 -14 -3 -7 -16 -33 -10 -21 37 -20 -12
right_child=10 11 18 4 5 6 7 -9 33 12 35 -13 28 -15 31 22 -18 -19 36 27 21 26 -24 24 -26 -27 -28 -29 -30 -31 -32 32 -34 -35 -36 -37 -38 -39
leaf_value=0.094471506000480543 -0.032557215803372529 0.015494133225297397 0.043567153825550646 -0.034062178462218984 -0.026457028968792207 0.10194783897504707 0.0068224695445885776 0.059535952054812713 -0.043260147887556798 0.095068903281514516 -0.03482177075686984 -0.044742447751699638 0.053875968489183183 0.024856998784343567 -0.044830410804678547 -0.00084709294191638693 0.058650626978677581 -0.006288403396812108 -0.028090350593805102 -0.01995754334727412 0.082320636813518699 -0.028401996772748773 -0.034720388787070226 0.082874910371665195 0.0024030031402601927 0.057926297118578385 0.035491609198768322 0.0086865177645799232 0.084024861933959027 -0.037292023666095506 0.064965145624065218 0.0011135563750310812 -0.03895570601540066 -0.022445722713073379 -0.045671384623075538 -0.025973804738790782 -0.045175674021071213 -0.044404763644476757
leaf_weight=6.7760481238365156 7.6535871028900173 6.2555377483367938 10.324581712484358 9.4131112694740278 12.221630752086641 15.104345828294756 108.39069595932961 39.974773824214935 21.257425338029861 20.510010868310928 10.032461762428282 83.892169564962387 16.377405732870102 92.186403065919876 12.942341923713686 45.07269823551178 16.612266719341278 6.2093376219272614 5.9792968332767478 6.0055312812328365 9.3329356610775029 6.0287939310073879 50.734795600175858 10.12911483645439 32.374697357416153 6.4652796983718863 6.5421012341976104 6.1711301505565634 37.034453064203262 6.1501531898975372 7.7981014251708975 6.2574513256549826 9.0840273201465589 10.828303456306456 10.351280003786089 7.8153987824916831 38.910919785499573 133.07679125666618
leaf_count=20 25 20 33 32 39 46 342 123 71 61 34 293 50 289 44 144 51 20 20 20 28 20 166 31 101 20 21 20 113 20 24 21 31 36 34 26 133 458
internal_value=-1.45951e-05 0.00921821 0.0162208 0.0221136 0.0251601 0.0136656 0.0303687 0.0210895 -0.0124926 0.0407244 -0.0327326 -0.034097 0.0497947 0.0377524 -0.00603414 -0.00925177 0.022437 0.0462283 -0.0260608 -0.00259562 0.0195822 0.0380931 -0.0188543 0.0115681 0.0218472 0.0129511 0.00447237 -0.0240721 0.0749919 -0.0103639 0.0899101 -0.0329548 -0.0223872 -0.0364826 -0.0367128 -0.0429209 -0.0430786 -0.0437927
internal_weight=948.277 739.511 636.748 559.006 513.935 295.909 171.268 148.365 45.0711 218.025 208.766 102.763 166.108 112.696 57.8412 124.641 28.8339 12.9854 77.7427 32.8525 29.5574 21.9038 95.8075 51.9169 42.5038 18.871 12.5709 22.5279 53.4119 12.4057 22.9024 28.2838 15.3415 32.0857 16.3568 150.925 44.8902 143.109
internal_count=3080 2372 2019 1759 1612 935 535 465 147 677 708 353 513 350 190 400 90 40 260 107 94 69 310 164 132 60 41 74 163 40 70 96 52 107 54 518 153 492
is_linear=0
shrinkage=0.05


Tree=9
num_leaves=40
num_cat=0
split_feature=24 15 24 18 16 15 18 2 2 0 0 8 25 20 12 4 24 20 15 11 21 0 7 14 15 18 0 5 16 0 0 2 0 0 16 7 20 11 20
split_gain=85.983 51.7282 27.2664 33.6176 28.4144 23.4435 19.9087 21.8734 47.5448 20.299 18.616 16.8041 15.1067 12.9024 12.7079 11.997 11.3016 9.73975 11.727 16.2165 8.58694 8.88424 13.6897 7.21715 7.20112 6.44715 6.0082 5.65138 4.92943 4.2936 4.2775 4.17591 3.10492 2.90367 2.90354 3.73262 12.5165 1.92418 1.51458
threshold=14.500000000000002 -0.020279813665820042 12.500000000000002 0.47672670417702373 -0.92305646852828882 0.032068211563474454 -1.2499332663896074 15.646533440136162 11.753259316496282 918.12500000000011 15.925000000000002 11.584875297675625 7.5000000000000009 16.500000000000004 919.13768549648989 0.076428571428571138 9.5000000000000018 6.5000000000000009 -0.0091701547771179445 17.112887494080002 -0.10549431040667843 21.120000000000005 200.69561846290847 1.0000000180025095e-35 0.0061877866258488587 0.11512765937905912 15.895000000000001 0.90563782803667481 1.4251784419321225 916.55500000000018 15.275 154.09897739417798 15.275 15.430000000000001 -1.2709928664413594 67.50115275796405 12.500000000000002 203.71028091189234 6.5000000000000009
decision_type=2 2 2 2 2 2 2 2 2 2 2 2 2 2 2 2 2 2 2 2 2 2 2 2 2 2 2 2 2 2 2 2 2 2 2 2 2 2 2
left_child=1 10 3 6 13 15 -3 8 24 16 11 -1 25 17 -11 23 -9 18 30 -20 21 -5 31 33 -8 -2 -25 38 -27 37 -4 -23 -10 -6 35 36 -12 -17 -22
right_child=12 2 4 20 5 -7 7 9 32 14 34 -13 -14 -15 -16 29 -18 -19 19 -21 27 22 -24 26 -26 28 -28 -29 -30 -31 -32 -33 -34 -35 -36 -37 -38 -39 -40
leaf_value=0.064424817859842512 -0.033322294155813691 0.083894969752861648 0.017776356897536306 0.060806066018180241 0 0.070607663801686801 -0.029689710981611023 0.019899833379061007 0.090211019795576566 0.085907775095495145 -0.0052108005527733599 -0.043983379504353826 -0.044347269148662299 0.063496562768763573 -0.003870432931031096 -0.038470740195038794 -0.0076679527418010056 -0.043230318986313979 -0.031692867852581033 0.052114169513737756 0.054850412862508427 0.0051627629284348364 0.073836395892039566 -0.012348203228536785 0.019721016501146799 0.052679008465532501 0.051139916456209022 0.027315735236059166 -0.0047687361830604201 0.0060759325432668872 -0.022227028749490362 -0.043910419689222345 0.047478659412808627 -0.03074256212163002 0.091417655279762811 0.083609003593433331 0.087538741720485369 -0.023194717728782732 0.087890100854450037
leaf_weight=6.4100911319255811 9.2242459356784838 7.6890383362770072 9.6302611231803912 12.441555142402647 13.74271732568741 6.5680715143680564 19.005915075540546 42.390424370765686 20.307915180921558 10.381458133459093 6.8878513872623426 7.808512955904007 112.37927201390266 11.300933837890623 6.1381121575832358 91.415131211280823 293.87055623531342 8.6463893651962263 7.270025670528411 25.860717982053757 7.0122117996215882 11.495208144187933 5.9567787945270529 6.0589733123779288 11.805541336536406 6.3496625125408164 9.0389265716075879 8.3915524780750257 8.5028321444988233 6.5486251115798941 20.700516194105148 6.7055928111076346 6.5894625186920157 16.607181072235107 13.828611850738527 10.621008604764937 7.363940566778183 29.945499688386917 13.922764897346495
leaf_count=19 32 23 30 37 45 20 64 137 59 30 21 27 400 34 21 310 971 31 24 82 21 38 18 20 38 20 29 26 28 22 68 23 20 55 40 31 21 104 41
internal_value=1.26957e-05 0.00627392 0.00288116 0.00992905 -0.0100553 -0.0212454 0.00467947 0.0031634 0.0316762 -0.00149429 0.0540029 0.00464908 -0.0366525 0.01402 0.0524258 -0.024793 -0.0041729 0.00611941 0.0129792 0.0335335 0.0430948 0.0265903 0.00858443 -0.00259856 -0.0105935 -0.000495024 0.0254188 0.063362 0.0196447 -0.0326317 -0.00934465 -0.0127849 0.0801421 -0.016738 0.0719475 0.0605997 0.0426408 -0.0347648 0.0773745
internal_weight=936.814 800.358 747.438 484.104 263.334 179.925 418.178 410.489 57.7088 352.781 52.92 14.2186 136.456 83.4088 16.5196 173.357 336.261 72.1079 63.4615 33.1307 65.9257 36.5991 24.1576 45.4478 30.8115 24.0767 15.0979 29.3265 14.8525 127.909 30.3308 18.2008 26.8974 30.3499 38.7014 24.8728 14.2518 121.361 20.935
internal_count=3080 2600 2441 1567 874 605 1363 1340 181 1159 159 46 480 269 51 585 1108 235 204 106 204 116 79 149 102 80 49 88 48 436 98 61 79 100 113 73 42 414 62
is_linear=0
shrinkage=0.05


Tree=10
num_leaves=49
num_cat=0
split_feature=24 2 21 25 3 18 1 12 18 15 3 1 15 2 12 21 3 21 12 2 15 15 11 15 24 4 1 24 18 6 9 24 11 12 9 15 5 17 12 15 3 16 5 15 18 15 3 16
split_gain=254.93 133.954 57.9147 46.5814 28.3127 19.617 19.1795 26.519 17.7512 13.0454 11.6758 10.8874 10.5885 10.0754 8.72233 8.62479 10.7093 9.30852 16.2521 10.1441 12.1511 9.75645 9.44699 8.47569 19.1573 11.2622 8.71397 6.36293 6.21475 5.97251 5.95264 5.64227 5.11922 4.67902 4.13487 3.93286 3.47866 3.34109 2.91949 2.51625 4.14645 3.07114 1.33222 1.13358 1.78052 0.708376 0.479483 0.272837
threshold=14.500000000000002 378.67683689792221 -0.038444716901001028 7.5000000000000009 45.055183282282258 -0.015490711864577214 917.41684141145242 919.13768549648989 0.47672670417702373 -0.0056653214289817946 45.247745168746363 159.26504035030592 0.0033362156751230308 151.77516911228378 176.53484633428346 -0.21405088304484246 61.626020208558579 -0.085432317336680511 202.28301974208532 67.939912753921291 0.010461912000167932 0.01853853105397411 21.567545638833078 -0.0093133680929759193 11.500000000000002 0.57357142857142929 157.83339529928477 13.500000000000002 -0.67546369516113114 1.0000000180025095e-35 58.709289994327094 9.5000000000000018 152.95465469695358 177.35670855838285 23.154742377401494 -0.0025533741692343832 0.83404047517604363 0.35000000000000003 177.04718504274214 -0.0072643225868856513 41.019563295831574 -1.7566180166879717 0.65732891127945969 -0.0035006360977020063 -0.27698154476206577 0.0016754117980535765 57.877123227109628 0.68862907249671523
decision_type=2 2 2 2 2 2 2 2 2 2 2 2 2 2 2 2 2 2 2 2 2 2 2 2 2 2 2 2 2 2 2 2 2 2 2 2 2 2 2 2 2 2 2 2 2 2 2 2
left_child=1 2 5 11 14 13 9 10 38 -3 -8 37 31 34 29 16 32 18 22 20 -19 -21 -17 25 26 -15 -25 -20 -27 35 -18 -11 -7 -16 -1 -4 -34 -2 46 41 -41 -36 -9 44 -33 -26 -6 -45
right_child=3 6 4 -5 8 15 7 42 -10 12 -12 -13 -14 23 33 17 30 19 27 21 -22 -23 -24 24 45 28 -28 -29 -30 -31 -32 43 36 -35 39 -37 -38 -39 -40 40 -42 -43 -44 47 -46 -47 -48 -49
leaf_value=0 -0.0033337315516658995 -0.001352342377997864 -0.035221838042644935 0.065876732209053865 0.067238081987161344 -0.05305739861631479 0.021618248894963381 0.028871002718451666 -0.022441012132328114 0.012223979517848482 -0.052936395331164537 0.031814015627490561 -2.1060687047351335e-05 0.047160483434409727 -0.053253947732129908 -0.020300512870158834 0.057043716092792608 0.012920706004635608 0.055368961692491059 -0.038924702141393229 -0.037558939265960475 0.024176167594161798 -0.045551965789659511 0.050644983591315557 -0.052276646964675967 -0.042189824252851449 -0.014679256265348318 -0.0069513610182452296 0.0061050793254431197 0.045417385410370131 0.0047101868158935462 0.062579273733428337 0.015201515165091401 -0.0028644216281250336 -0.033200214969256424 0.016130979657114321 -0.025522417245691927 -0.049112474431507132 0.029173011419039468 -0.047423384173066969 -0.025907280938464686 -0.04951124064485856 0.058273218757916814 0.063865467330141951 0.026314576915415552 -0.031846844445866933 0.050396006693930566 0.048925190717013095
leaf_weight=7.2142057120800009 7.3479425311088624 14.254601150751112 7.2724149525165567 149.96694070100784 22.855799108743668 7.1246815025806454 7.3521110415458706 7.4728384017944363 8.754921227693556 7.4289939701557151 17.253057330846786 12.668890595436094 9.5269115567207319 9.4747619628906232 13.447320997714998 87.733155131340027 10.424121886491777 61.17515042424202 7.3487535715103158 34.083137512207031 14.682833790779112 7.2887205481529227 65.889137208461761 7.7093048989772823 35.749976068735123 12.190261363983153 14.500235080718992 8.7881401479244232 14.170073986053469 7.4294490814208975 11.7467023730278 7.4666739702224731 10.93377259373665 7.3271878957748404 49.351724535226822 7.3127891421318063 9.8102948069572431 9.3514568507671338 9.670118033885954 34.17924302816391 72.972554117441177 84.485205560922623 11.989776015281675 56.237444013357162 7.8264741003513318 7.0933617055416098 11.587568104267119 8.6190136373043043
leaf_count=20 20 39 20 400 61 20 20 20 24 20 49 34 26 26 38 245 28 167 20 95 41 20 186 21 101 34 40 24 39 20 32 20 30 20 140 20 27 26 26 97 206 241 32 150 21 20 31 23
internal_value=1.15738e-06 -0.0104468 -0.0188797 0.0546054 0.0175231 -0.023964 0.0319219 0.00386342 0.0419839 0.0429671 -0.0304595 -0.00280926 0.0495191 -0.0322843 -0.0126104 -0.0153241 0.00374171 -0.018666 -0.026159 -0.00775972 0.00304761 -0.0276558 -0.0311861 -0.0188327 -0.0295769 0.000560632 0.00789714 0.0212876 -0.0161148 0.00912849 0.0296862 0.054959 -0.0167518 -0.0358199 -0.0377221 -0.00919936 -0.00384784 -0.0294066 0.0549048 -0.0388383 -0.0328549 -0.0435632 0.0474449 0.0588376 0.0446367 -0.0490927 0.061879 0.0620354
internal_weight=1116.54 937.205 781.777 179.335 95.6576 686.12 155.428 44.0678 52.8684 111.36 24.6052 29.3683 97.1055 349.091 42.7892 337.029 50.0396 286.989 169.759 117.23 75.858 41.3719 153.622 100.888 65.0529 35.8351 22.2095 16.1369 26.3603 22.0147 22.1708 87.5786 27.8687 20.7745 248.203 14.5852 20.7441 16.6994 44.1135 240.989 107.152 133.837 19.4626 80.1496 15.2931 42.8433 34.4434 64.8565
internal_count=3080 2600 2180 480 260 1920 420 121 142 299 69 80 260 985 118 935 137 798 475 323 208 115 431 281 182 99 61 44 73 60 60 234 77 58 704 40 57 46 118 684 303 381 52 214 41 121 92 173
is_linear=0
shrinkage=0.05


Tree=11
num_leaves=43
num_cat=0
split_feature=7 24 20 13 24 15 16 21 15 20 0 1 25 20 20 2 2 12 8 9 15 9 5 15 13 12 21 24 20 15 12 16 25 25 16 4 12 9 13 9 7 9
split_gain=105.973 81.2475 86.5484 26.4142 51.0683 24.8306 24.779 23.9537 22.3576 28.6949 20.5452 20.4921 20.223 16.9617 16.7008 19.0092 17.0365 15.7009 12.7105 9.84747 9.92296 7.99651 7.41466 6.90147 6.88108 14.333 6.45834 6.11755 5.99627 7.08519 8.17618 5.34598 2.88712 2.07799 1.75886 1.0632 0.731974 0.701425 0.393098 0.33877 0.228825 0.196552
threshold=204.05427682925281 14.500000000000002 13.500000000000002 43.881686183481023 11.500000000000002 -0.020279813665820042 0.72393280487543354 -0.20266782730413382 -0.0035006360977020063 6.5000000000000009 200.36500000000004 15.355430621037458 7.5000000000000009 4.5000000000000009 1.0000000180025095e-35 11.676727776895385 201.60287062079112 15.741409415172248 15.807413567966657 31.451085366661662 -0.0013642787606981165 30.286020351741495 1.0723791718647246 -0.0065552844144790871 51.524528741191624 22.633506031880916 -0.085432317336680511 10.500000000000002 19.500000000000004 0.00019043013904945801 176.22049857278287 -2.1611188925997573 37.500000000000007 42.500000000000007 0.77090891062664568 3.7617857142857241 915.95900064624163 69.42581101245689 48.175708254346425 53.53890845732672 177.56505928655471 49.69881670451641
decision_type=2 2 2 2 2 2 2 2 2 2 2 2 2 2 2 2 2 2 2 2 2 2 2 2 2 2 2 2 2 2 2 2 2 2 2 2 2 2 2 2 2 2
left_child=1 2 3 5 21 13 14 11 9 27 26 41 22 31 15 -6 -16 -13 -15 -9 -21 -5 34 -11 25 -23 -8 -2 38 30 32 -1 -30 -26 -3 37 39 -10 -4 -29 -31 -7
right_child=8 12 28 4 6 7 10 19 35 23 -12 17 -14 18 16 -17 -18 -19 -20 20 -22 24 -24 -25 33 -27 -28 36 29 40 -32 -33 -34 -35 -36 -37 -38 -39 -40 -41 -42 -43
leaf_value=0.0084614567344663758 0.012504935938560986 0.0087728742725694149 -0.043622702043959113 0.03190887618706547 0.071120649799652116 -0.044541965807610696 0.0046471517526469018 0.0068336243183440976 -0.044068701508549468 0.088129758716092549 0.078166520991861208 0.094366317626615293 -0.043981058369141943 0.081413409833273068 0.063715121123673377 -0.017588116927930577 0.0043878454461116646 0.018026328410786108 -0.013106892203662733 0.066770827949894196 0.040930543721113405 0.017776871592069112 0.055958923839448317 0.021287346499880528 -0.041111891776597798 -0.043060234655599612 -0.030536027982325898 -0.044399532690473545 0.05111675025224377 -0.043853061124958265 -0.033496454073147837 -0.042053501715114752 0.0029043071989952548 -0.017420414226312821 -0.028499798496681512 -0.0197363099401026 -0.019295261182107643 -0.026745066685476982 -0.030092455499674254 -0.02687950874909811 -0.027042766824913141 -0.027555822378911177
leaf_weight=7.1025864481925955 7.4410142600536338 6.1688745617866534 41.50480517745018 7.372795730829238 8.4873670339584368 8.281977176666258 38.943244844675064 12.394470125436781 132.99322035908699 6.990716606378558 7.9555813968181601 7.8103540837764731 81.084829241037369 8.0682103335857374 68.659576892852783 20.135938376188278 14.926933169364927 48.295962035655975 6.1158325970172873 75.372090667486191 78.022839784622192 24.256823390722275 6.5514141321182242 9.2442623972892743 34.555266857147217 15.924311488866804 19.368194997310638 20.872287511825565 6.9528859257698077 11.280386418104174 8.4340550899505597 18.083991795778278 5.9852438867092133 14.107529193162916 6.0449749827384949 6.1262895166873923 6.0729003846645346 8.2946626842021924 10.61405637860298 5.8335526883602133 5.8371278941631308 5.9238857924938193
leaf_count=23 24 20 144 23 25 28 123 38 472 20 23 23 293 23 205 64 46 148 20 222 235 77 20 29 117 52 64 73 22 40 28 62 20 47 20 21 21 28 37 20 20 20
internal_value=-1.92538e-05 0.00876318 0.0153066 0.0227694 0.0117638 0.0337176 0.0275983 0.0398467 -0.0319376 -0.00506838 0.0032642 0.0152606 -0.0331518 -0.00291925 0.041909 0.00869771 0.0531981 0.0288913 0.040502 0.0502282 0.0536952 -0.0175548 0.0133617 0.0507388 -0.021747 -0.00625659 -0.00698564 -0.0277893 -0.0299268 -0.0147005 0.00430014 -0.0276335 0.0293903 -0.034396 -0.00935 -0.0421834 -0.0370987 -0.0431067 -0.0410259 -0.0408736 -0.0386015 -0.0380503
internal_weight=944.493 740.624 640.774 550.166 274.694 275.472 178.477 236.102 203.869 56.4547 66.267 70.3122 99.8501 39.3706 112.21 28.6233 83.5865 56.1063 14.184 165.789 153.395 96.2167 18.7653 16.235 88.8439 40.1811 58.3114 40.2198 90.6086 38.4897 21.3722 25.1866 12.9381 48.6628 12.2138 147.414 32.7787 141.288 52.1189 26.7058 17.1175 14.2059
internal_count=3080 2372 2019 1708 866 842 550 714 708 187 210 219 353 128 340 89 251 171 43 495 457 316 60 49 293 129 187 138 311 130 70 85 42 164 40 521 114 500 181 93 60 48
is_linear=0
shrinkage=0.05


Tree=12
num_leaves=42
num_cat=0
split_feature=24 15 24 18 16 15 18 2 2 12 12 11 8 8 25 2 12 4 4 2 11 21 2 7 15 18 9 14 7 2 2 12 2 24 20 20 9 25 2 9 18
split_gain=78.9295 45.662 24.9623 29.6793 26.2063 21.3495 17.4998 19.8186 44.1987 18.5863 35.2828 20.4389 15.8715 15.2653 14.4117 11.7162 16.146 11.4715 9.46285 15.1642 11.9875 7.35199 7.83565 12.0401 6.77035 5.96428 8.8767 5.79641 6.25371 4.01576 3.98745 3.78137 3.45112 2.93852 5.35376 2.53877 2.82234 2.21642 0.941099 0.84736 0.157502
threshold=14.500000000000002 -0.020279813665820042 12.500000000000002 0.47672670417702373 -0.92305646852828882 0.032068211563474454 -1.2499332663896074 15.619652403065865 11.753259316496282 176.93429696336435 202.1711913358979 153.13737992963971 15.969354209113691 11.584875297675625 7.5000000000000009 378.12275828402511 15.701487739281404 0.073571428571428801 0.31785714285714312 372.50200527064408 17.112887494080002 -0.10549431040667843 17.192950590265021 200.69561846290847 0.0061877866258488587 0.11512765937905912 58.254233578210531 1.0000000180025095e-35 15.895650604752882 918.00775446006026 154.09897739417798 915.95900064624163 15.493880049727666 10.500000000000002 8.5000000000000018 1.0000000180025095e-35 33.952012459625202 17.500000000000004 175.91871576777015 40.043182784002958 -0.46034449100134789
decision_type=2 2 2 2 2 2 2 2 2 2 2 2 2 2 2 2 2 2 2 2 2 2 2 2 2 2 2 2 2 2 2 2 2 2 2 2 2 2 2 2 2
left_child=1 12 3 6 15 17 -3 8 24 11 -11 -9 13 -1 25 16 40 27 20 -20 -18 22 -5 30 -8 -2 -27 32 -29 37 -24 -17 -6 34 -23 -14 -37 -19 -35 -10 -4
right_child=14 2 4 21 5 -7 7 9 39 10 -12 -13 35 -15 -16 31 18 29 19 -21 -22 33 23 -25 -26 26 -28 28 -30 -31 -32 -33 -34 38 -36 36 -38 -39 -40 -41 -42
leaf_value=0.060057636568504304 -0.032602775812297861 0.077554672991081097 -0.036341108351637411 0.056663435059151862 0.0052953681016957846 0.065686415981514951 -0.028991964867485211 -0.0013796095165189539 0.058768226006016493 0.053679410109648412 -0.0026908740563008934 -0.03649607490379525 0.038262559847945368 -0.043276582072252476 -0.043534758949597109 -0.043409430895652308 0.012753298285163629 -0.024452808458511447 -0.0016631294764932994 0.081201489535986951 0.088490774031541222 0.0074860361364742709 0.0049726678313541791 0.067909377137298318 0.01896365101517461 0.053667085570288334 -0.022805597584621459 -0.012111104393941498 0.055057098949959353 0.0059302264210735617 -0.043312788031645462 0.0023322806675296747 -0.029591605536422528 0.055065793544645414 0.070274988230175792 0.046802814074200616 0.082500418734643921 -0.038906397194386252 0.085402478785084307 0.084754359076068986 -0.020523905498408275
leaf_weight=6.5716025829315168 9.0317729115486163 7.9390552639961234 5.9726541042327881 12.743957072496412 12.257343351840975 6.7648887932300559 18.690292865037922 159.33946749567986 7.0234566330909756 38.283825218677521 99.721339792013168 56.05824738740921 7.5970301926136008 7.5787003040313721 108.07939186692238 9.7204087674617785 8.7200014293193835 45.764909952878952 24.553997278213505 6.9804957807064048 13.754172474145888 6.7286625802516955 11.510742843151098 6.1586338579654685 11.891180664300917 8.1628767848014814 6.8291486501693717 6.0324594080448133 7.649961918592453 6.5433965921401969 6.5510621666908255 7.9852728843688956 15.981083840131758 6.5486486256122616 7.244293212890625 8.9571067690849286 23.203495055437088 76.348561376333237 9.5712018013000471 19.037755161523819 6.0328415036201459
leaf_count=19 32 23 20 37 40 20 64 523 20 122 328 191 22 27 400 35 27 158 81 20 40 20 38 18 38 25 23 20 24 22 23 26 54 20 21 26 65 267 27 54 20
internal_value=3.01489e-05 0.00594913 0.002728 0.00944217 -0.00972632 -0.0206182 0.00447046 0.00302469 0.030458 -0.00136549 0.0129381 -0.0105547 0.0503505 0.00444712 -0.0357545 0.0132832 0.0230032 -0.0241067 0.0346967 0.0167205 0.0595127 0.0403048 0.025023 0.0080048 -0.0101811 -0.00050987 0.0185807 -0.00126149 0.0252074 -0.0315049 -0.0124073 -0.0226018 -0.0143067 0.0587656 0.0406624 0.0665106 0.0728891 -0.0335549 0.073802 0.0781937 -0.0290411
internal_weight=932.115 800.012 746.104 485.042 261.062 177.343 417.985 410.046 56.6427 353.403 138.005 215.398 53.9079 14.1503 132.103 83.7198 66.0142 170.578 54.0087 31.5345 22.4742 67.0572 36.9644 24.2204 30.5815 24.0238 14.992 41.9208 13.6824 128.657 18.0618 17.7057 28.2384 30.0928 13.973 39.7576 32.1606 122.113 16.1199 26.0612 12.0055
internal_count=3080 2600 2441 1567 874 605 1363 1340 176 1164 450 714 159 46 480 269 208 585 168 101 67 204 116 79 102 80 48 138 44 447 61 61 94 88 41 113 91 425 47 74 40
is_linear=0
shrinkage=0.05


Tree=13
num_leaves=51
num_cat=0
split_feature=24 2 21 25 15 13 13 18 18 7 12 15 0 2 15 24 0 2 0 21 8 13 13 15 20 8 0 0 25 2 16 9 16 0 15 13 16 20 13 12 15 18 25 0 8 7 13 15 23 11
split_gain=228.559 122.27 52.6605 41.8222 19.2925 22.1762 18.7188 18.001 15.2661 14.7267 20.0869 12.0165 10.0188 9.32157 7.93987 17.9919 9.63177 12.4377 8.18424 7.89136 13.7033 12.5621 8.21941 9.58334 5.87199 4.71285 4.5812 6.07773 4.06861 4.01793 5.07729 3.92348 3.80619 3.9121 3.71028 3.12348 3.11175 2.56535 7.98617 2.8082 1.92597 1.58044 1.45606 1.3631 0.962248 5.49486 0.922991 0.659211 0.513009 0.269311
threshold=14.500000000000002 378.67683689792221 -0.038444716901001028 7.5000000000000009 -0.0014171284371285618 39.142272386507265 44.95530098186034 -0.015490711864577214 0.47672670417702373 915.78195041010792 919.13768549648989 -0.0051449307611450227 160.40500000000003 151.77516911228378 -0.0093133680929759193 11.500000000000002 198.54000000000005 202.32730112253597 156.77000000000001 -0.21405088304484246 153.74088652372922 68.272397324053316 42.724874231645842 0.0066565967526513144 3.5000000000000004 175.52856295024753 905.18500000000006 914.5150000000001 37.500000000000007 156.07040545421344 1.0163882735933052 23.154742377401494 0.40435684021830659 384.52000000000004 0.00043820295430038058 52.603269822254923 -2.5048363893630756 1.0000000180025095e-35 41.582409354291734 22.993149923471346 0.0040486674132759618 -0.48999793896420502 37.500000000000007 382.39000000000004 177.9713595901932 175.82320702299941 26.092829125211669 0.0016754117980535765 33.500000000000007 382.35509200671146
decision_type=2 2 2 2 2 2 2 2 2 2 2 2 2 2 2 2 2 2 2 2 2 2 2 2 2 2 2 2 2 2 2 2 2 2 2 2 2 2 2 2 2 2 2 2 2 2 2 2 2 2
left_child=1 2 7 12 5 41 26 13 34 11 28 -8 35 31 16 18 36 -18 -16 20 40 22 24 -24 -21 -7 46 -28 -11 30 -22 -1 43 -34 -6 -2 -15 38 -33 -39 -9 -4 -29 -13 45 -36 49 -17 -23 -3
right_child=3 6 4 -5 8 25 9 19 -10 10 -12 32 -14 14 15 47 17 -19 -20 21 29 48 23 -25 -26 -27 27 42 -30 -31 -32 37 33 -35 44 -37 -38 39 -40 -41 -42 -43 -44 -45 -46 -47 -48 -49 -50 -51
leaf_value=0 -0.0032407975105301933 0.037415860883211374 -0.02425241523152652 0.062487023197314778 0.015178229450644315 0.0026275805363741881 -0.024483372252435381 -0.047880569877785856 -0.025299071613473823 -0.052498473804391245 0.05242669943918829 0.034515391131493565 0.030389375192549861 -0.0057723295304850115 0.048936855522283607 -0.050822890604180528 0.074306368763845235 -0.005441922454614093 -0.014280921034905747 -0.017302759362299452 -0.002381421783400341 -0.034226594948358058 0.0040571878017490902 -0.019946530132635032 -0.04504505156934098 0.052842316111569844 -0.0039750907168793776 0.060623776744711366 -0.0087561392325125765 -0.0079573997901925281 0.046375540650573033 -0.012210411819247986 0.046580806638787144 -0.0026955486182309307 0.064516132279439545 -0.047673932744439519 -0.052746849081079718 -0.035595271616881898 -0.045617436226324616 -0.049603774801917966 -0.012284675282225016 -0.053531901869911962 0.029432484178802662 0.062298827313484122 0.064566447286107262 0.010283866950331346 0.064339652624315485 -0.030909433222341944 -0.05235925613430728 0.054717306389461144
leaf_weight=7.1906354725360861 7.3428795337677064 8.1915649175643939 8.5077502131462115 149.33681666851044 7.7604652643203726 8.80323573946953 7.9620536863803855 9.5672390460968035 8.302619665861128 14.659641653299333 8.6017370820045453 7.8572713732719448 12.690533846616743 7.170571357011795 7.7540724873542812 35.090365141630173 7.3862159252166775 13.768491148948668 14.458007127046583 59.068551599979401 7.3137478232383755 8.0941719710826892 85.301485270261765 80.478057086467743 29.006567686796188 10.446323215961455 8.1358292102813738 10.081234514713289 8.8546215593814832 8.0526590943336469 17.862534940242767 35.88410547375679 7.8453960716724378 7.7840081751346588 13.856336385011675 9.2197068929672223 7.4422297775745374 102.11430293321609 36.838628232479095 62.218617796897888 7.1552418172359458 13.802099555730818 7.8256810009479514 17.593305259943008 16.458221197128296 7.4443927705287924 29.537458151578903 7.0273492336273184 22.981759786605835 10.088979214429854
leaf_count=20 20 22 24 400 21 24 22 27 23 42 23 21 34 20 21 101 20 38 40 166 20 23 236 225 82 28 22 27 25 22 48 103 21 21 37 26 21 295 106 180 20 39 21 47 44 20 79 20 66 27
internal_value=-2.21369e-06 -0.00996055 -0.0180769 0.0517832 0.0166687 -0.00881622 0.0305488 -0.0229652 0.0364198 0.0138611 -0.012325 0.0311014 -0.00271629 -0.0310056 -0.0180276 -0.0285167 0.000725037 0.0223857 0.00768426 -0.0146759 0.00356617 -0.0178916 -0.0141783 -0.00757033 -0.0265368 0.0302687 0.0487741 0.0312805 -0.0363453 0.0222177 0.0320604 -0.0362942 0.0420294 0.0218604 0.0478175 -0.0284126 -0.030232 -0.0373974 -0.0292412 -0.0409564 -0.0331105 -0.0427475 0.0475094 0.0540857 0.0543359 0.0459328 0.058112 -0.0476998 -0.0479217 0.0474822
internal_weight=1108.22 929.626 774.607 178.59 95.3814 41.5594 155.019 679.226 53.822 81.158 32.116 49.042 29.2531 344.344 100.097 64.3298 35.7675 21.1547 22.2121 334.882 49.9514 284.931 253.855 165.78 88.0751 19.2496 73.8607 26.0427 23.5143 33.2289 25.1763 244.246 41.08 15.6294 45.5194 16.5626 14.6128 237.056 72.7227 164.333 16.7225 22.3098 17.9069 25.4506 37.759 21.3007 47.818 42.1177 31.0759 18.2805
internal_count=3080 2600 2180 480 260 115 420 1920 145 222 90 132 80 985 281 182 99 58 61 935 137 798 709 461 248 52 198 70 67 90 68 704 110 42 122 46 41 684 209 475 47 63 48 68 101 57 128 121 89 49
is_linear=0
shrinkage=0.05


Tree=14
num_leaves=44
num_cat=0
split_feature=7 24 20 13 24 18 15 21 15 20 13 1 20 12 21 24 3 18 20 1 20 0 24 20 3 18 24 20 20 16 16 18 13 4 12 13 16 16 8 3 20 4 0
split_gain=97.694 73.6153 78.3259 23.9313 46.0933 23.0862 22.1319 22.2552 21.536 26.2695 20.0927 18.3341 17.3598 14.1266 10.9296 8.75222 8.62873 8.36892 8.05249 7.85751 7.69856 7.03994 6.08694 5.92734 10.838 9.49069 5.86899 5.67039 3.85992 2.17786 1.6318 1.63423 3.83279 1.04539 0.720764 0.409583 0.380936 1.25213 0.379457 0.307056 0.265939 0.221604 0.0408704
threshold=204.05427682925281 14.500000000000002 13.500000000000002 43.881686183481023 11.500000000000002 -0.0086912380218150571 -0.021641254173556071 -0.20266782730413382 -0.0035006360977020063 6.5000000000000009 71.266234230430953 15.355430621037458 4.5000000000000009 15.741409415172248 -0.085432317336680511 9.5000000000000018 59.812604928606568 -0.24854782755040419 5.5000000000000009 17.109788393967783 3.5000000000000004 67.870000000000019 12.500000000000002 19.500000000000004 44.919484257566133 -0.43247895586108903 10.500000000000002 2.5000000000000004 1.0000000180025095e-35 -2.063060866637636 2.2890581326745001 -0.52543509180186032 27.483530491157079 3.7617857142857241 915.95900064624163 48.175708254346425 1.4948590428977366 1.8137635322183681 15.839210798412118 74.78638171822918 3.5000000000000004 0.087142857142857147 30.290000000000003
decision_type=2 2 2 2 2 2 2 2 2 2 2 2 2 2 2 2 2 2 2 2 2 2 2 2 2 2 2 2 2 2 2 2 2 2 2 2 2 2 2 2 2 2 2
left_child=1 2 3 6 16 17 12 11 9 26 14 41 29 -13 -7 27 18 19 21 -6 -17 -5 -11 35 25 -25 -2 -9 -19 -1 31 32 -3 -10 40 -4 38 -38 -33 -18 -28 -8 -32
right_child=8 30 23 4 5 10 7 15 33 22 -12 13 -14 -15 -16 20 39 28 -20 -21 -22 -23 -24 24 -26 -27 34 -29 -30 -31 42 36 -34 -35 -36 -37 37 -39 -40 -41 -42 -43 -44
leaf_value=-0.0050370623111557983 0.012350754731276642 -0.042680702813128649 -0.043004918147891841 -0.0042041940202148442 0.053632971233356842 0.013230622714655152 -0.044142531414283176 -0.020402181835251547 -0.042386041749073455 0.012209319669886393 0.073888880455848169 0.08717420377410677 0.04120585111899211 0.016021753571284283 -0.025061285676656678 0.045070673670819114 -0.042426385849453817 0.025693997862428167 0.034075908214975484 0.0026336308220715312 0.074206221404865283 -0.045859529315660785 0.07452374499391673 -0.027816744762322113 -0.043267135405604451 0.039963918022653505 -0.04375942355544285 0.03922223668866779 0.065614123274253075 -0.041029496585429294 -0.017588708422081909 -0.02837909407247128 0.011424137767177198 -0.019050972527950242 -0.018555057611195511 -0.029181071401404475 -0.0089775669054860448 -0.043080159954829417 -0.041571897383590677 -0.02560877783865094 -0.028003039629317009 -0.026555400987084105 -0.0082170342855179476
leaf_weight=6.1230493187904349 7.4523201286792746 6.8221522867679578 40.442334085702896 42.248814702033997 13.648080796003343 64.902104258537292 8.157022148370741 7.3908086717128745 136.7551993727684 7.1593212187290201 10.880121976137159 8.0847762227058393 12.73062628507614 50.267762452363968 25.995240032672882 126.78246933221817 24.032743334770206 7.8606933355331412 9.989178538322447 17.271301656961441 28.844865083694458 13.401292026042936 9.3224300444126129 9.0220863223075884 17.136934965848923 11.697412252426146 19.457036375999458 8.3014076650142652 40.134606927633286 16.428703963756565 5.6534687280654889 10.258820354938505 5.9356482028961182 6.0386665165424338 5.9792186021804801 10.357368201017378 5.6529064476490003 6.1106470227241516 50.812107264995575 5.6627019941806784 6.4928854703903189 5.7885796427726737 5.6049394011497498
leaf_count=20 24 25 144 138 40 200 28 23 500 22 31 23 38 153 86 370 84 24 30 53 84 44 27 31 63 36 70 25 116 58 20 38 20 21 21 37 20 22 188 20 23 20 20
internal_value=-2.19889e-05 0.00832665 0.0144488 0.0214263 0.0109555 0.0258028 0.0317637 0.0371244 -0.0311527 -0.00471958 0.00998599 0.0137382 -0.00511027 0.0260978 0.00220927 0.0469507 -0.0171305 0.0461003 -0.00689706 0.0254067 0.0505471 -0.0143893 0.0479941 -0.0291444 -0.0139125 0.0102175 -0.0269734 0.010872 0.059247 -0.0315433 -0.0322768 -0.0346727 -0.0172261 -0.0414482 -0.0363177 -0.0403475 -0.0376323 -0.0273276 -0.0394875 -0.0394839 -0.0401316 -0.0374394 -0.0134767
internal_weight=939.091 740.434 643.583 554.927 276.027 180.692 278.9 243.618 198.657 55.8632 101.777 72.2981 35.2824 58.3525 90.8973 171.32 95.3347 78.9147 65.6393 30.9194 155.627 55.6501 16.4818 88.6561 37.8564 20.7195 39.3815 15.6922 47.9953 22.5518 96.8507 85.5923 12.7578 142.794 31.9291 50.7997 72.8345 11.7636 61.0709 29.6954 25.9499 13.9456 11.2584
internal_count=3080 2372 2019 1708 866 550 842 726 708 187 317 224 116 176 286 502 316 233 212 93 454 182 49 311 130 67 138 48 140 78 353 313 45 521 114 181 268 42 226 104 93 48 40
is_linear=0
shrinkage=0.05


Tree=15
num_leaves=37
num_cat=0
split_feature=24 15 13 24 13 15 13 15 13 23 18 0 8 25 24 11 23 2 9 15 23 16 15 0 9 18 18 13 24 16 7 13 10 3 24 25
split_gain=72.5761 40.6196 44.4631 50.6956 52.3523 44.2362 21.9152 18.3767 16.65 15.5742 19.1506 13.8163 14.0557 13.5474 11.8656 10.6372 11.7643 9.88376 16.927 7.99954 10.4071 7.73419 12.0121 5.64941 5.56185 10.0711 4.52478 2.81364 2.39365 2.33745 3.01429 7.12599 1.77589 2.60488 1.7642 3.59563
threshold=14.500000000000002 -0.020279813665820042 1.0000000180025095e-35 12.500000000000002 36.112619249995149 -0.0020739469016631666 19.264163513506762 0.034510759710048571 51.390511893725638 44.500000000000007 -0.35302386152554993 15.925000000000002 11.584875297675625 7.5000000000000009 9.5000000000000018 912.06392946271114 30.000000000000004 30.151770214124465 58.583635904574358 0.0092302158207030107 37.500000000000007 -0.7818779757097154 -0.0012633789750141271 21.470000000000002 60.422916673150191 0.11512765937905912 -0.86068562468493715 34.465541540008815 10.500000000000002 -1.2709928664413594 67.50115275796405 16.041340211715838 -1.0000000180025095e-35 47.560535199640647 11.500000000000002 37.500000000000007
decision_type=2 2 2 2 2 2 2 2 2 2 2 2 2 2 2 2 2 2 2 2 2 2 2 2 2 2 2 2 2 2 2 2 2 2 2 2
left_child=1 11 17 5 26 6 -4 21 15 14 -11 12 -1 24 -8 16 -7 18 32 20 -10 22 -6 -23 25 -2 -5 -28 -21 30 31 -13 -3 -34 -19 -36
right_child=13 2 3 4 7 8 9 -9 19 10 -12 29 -14 -15 -16 -17 -18 34 -20 28 -22 23 -24 -25 -26 -27 27 -29 -30 -31 -32 -33 33 -35 35 -37
leaf_value=0.056506658102029844 -0.029252643892769176 -0.040252332960238973 0.062870087674283953 0.022036289567102393 -0.014536234227720997 0.046869076011293843 0.028378720248627226 0.066397768064193008 0.020876376792456779 -0.015479266148752481 0.058395746110948082 0.06799499285740089 -0.042727767964990955 -0.042767842469018907 -0.024766679625252492 0.068530476951946875 0.0067767231047438873 -0.042452168834953723 0.048429479579540219 0.052530961881229292 0.056287122757397626 -0.010581776735131406 0.044536308778185638 -0.032014070454518304 -0.037297642716542505 0.048327807813140035 0.081239328082124376 0.040754469214017111 0.085275601626720321 0.079030899220013995 0.072103223154240115 -0.00074357842430708681 0.0098241270680769176 -0.035425294370971576 -0.039423704463908943 0.004328061549558765
leaf_weight=6.6974492669105512 7.2089569866657319 13.044676274061201 11.728682041168211 8.8590558469295519 57.29542963206768 23.223656892776489 11.782620102167128 6.2249568104743949 41.365485936403275 17.801292240619659 16.988142311573029 7.9426933825016004 7.3930457532405853 103.65075778961182 86.550003319978714 10.251572698354719 87.207593619823456 52.841955751180649 10.289685934782026 12.167289644479753 43.200712025165558 43.678504794836044 10.002475351095198 111.71344889700413 7.2810585796833029 9.567770451307295 12.643425345420839 8.0122941434383375 14.690503925085066 14.577142566442491 11.195155292749403 6.826623409986496 6.0502874851226824 6.2539562582969666 13.140959620475771 6.9493685960769644
leaf_count=19 26 46 33 27 195 71 38 18 125 59 50 22 27 400 291 30 282 188 33 35 130 146 31 398 25 29 35 24 42 40 31 20 20 22 48 24
internal_value=4.94438e-05 0.00565286 0.00258698 0.00764684 -0.00939536 0.0193431 -0.0023068 -0.0174979 0.0328708 -0.00812961 0.0205156 0.0472304 0.00415349 -0.0349278 -0.0183254 0.0199053 0.0152881 -0.0269585 -0.00519344 0.0468384 0.0390702 -0.0198943 -0.00562905 -0.0260326 -0.000905722 0.0147194 0.0531256 0.0660483 0.0708768 0.0620319 0.0520298 0.0360953 -0.0272614 -0.0128722 -0.0375039 -0.0240956
internal_weight=926.299 798.59 743.958 635.387 258.43 376.958 144.851 228.915 232.107 133.122 34.7894 54.6321 14.0905 127.709 98.3326 120.683 110.431 108.571 35.6386 111.424 84.5662 222.69 67.2979 155.392 24.0578 16.7767 29.5148 20.6557 26.8578 40.5416 25.9645 14.7693 25.3489 12.3042 72.9323 20.0903
internal_count=3080 2600 2441 2060 874 1186 471 788 715 438 109 159 46 480 329 383 353 381 121 332 255 770 226 544 80 55 86 59 77 113 73 42 88 42 260 72
is_linear=0
shrinkage=0.05


Tree=16
num_leaves=45
num_cat=0
split_feature=24 2 23 25 3 18 1 18 2 15 0 15 20 20 4 15 15 2 7 4 20 17 2 4 24 16 4 9 18 4 9 2 2 7 24 17 4 4 6 15 24 4 5 4
split_gain=205.576 110.709 47.893 38.5723 23.7838 16.596 16.4418 14.2365 13.1545 10.6704 9.35075 9.01761 8.94953 12.2827 8.92277 7.04772 12.7364 14.2644 16.9707 7.86699 10.8352 6.6533 5.67853 5.10853 4.90373 4.64625 4.24675 4.07671 3.98005 3.60763 3.53196 3.22788 3.13189 14.125 3.07742 2.91792 2.12932 1.90965 1.70365 1.46686 3.66512 0.846126 1.49541 0.78217
threshold=14.500000000000002 378.67683689792221 50.500000000000007 7.5000000000000009 45.055183282282258 -0.015490711864577214 917.41684141145242 0.47672670417702373 918.99912046338056 -0.0056653214289817946 160.40500000000003 0.0033362156751230308 6.5000000000000009 3.5000000000000004 0.94392857142856978 0.0066565967526513144 -0.00088290156753036023 156.67062433985114 154.01292590636874 0.10821428571428583 1.5000000000000002 0.35000000000000003 203.67966328495388 0.31785714285714312 9.5000000000000018 1.0163882735933052 1.0024999999999917 53.477518348990692 -0.38445140782236126 1.1617857142857113 23.154742377401494 202.98894967966331 200.23058236163055 200.69561846290847 11.500000000000002 0.35000000000000003 0.079999999999999696 0.066071428571428822 -1.0000000180025095e-35 0.0015583061918658569 12.500000000000002 1.0464285714285688 0.8525755719687792 3.2182142857142866
decision_type=2 2 2 2 2 2 2 2 2 2 2 2 2 2 2 2 2 2 2 2 2 2 2 2 2 2 2 2 2 2 2 2 2 2 2 2 2 2 2 2 2 2 2 2
left_child=1 2 5 10 21 14 9 39 12 -3 35 24 13 -8 30 16 22 18 -18 36 27 23 38 -4 -11 -22 -16 -21 -25 -28 -1 -19 34 -34 -32 -2 37 -17 -7 40 -6 42 -26 -43
right_child=3 6 4 -5 7 15 8 -9 -10 11 -12 -13 -14 -15 26 19 17 31 -20 20 25 -23 -24 28 41 -27 29 -29 -30 -31 32 -33 33 -35 -36 -37 -38 -39 -40 -41 -42 43 -44 -45
leaf_value=-0.0014301800931441333 -0.003713412058590498 -0.00085502277722943856 -0.05058294728558918 0.05964599002659951 0.010975873705474067 -0.047925536781862489 0.023790719430807843 -0.019867626773511012 0.05669297338566897 0.010497378592647077 0.028841807718647479 -0.00046254972488673178 0.037093927712583727 -0.047518406915375677 0.028475541405148914 -0.041814005345170616 0.0029365524031572565 -0.051648150438910106 0.068312818210121931 -0.018442667768876948 -0.046593155410220619 0.024105852595870988 0.0089386635943939623 0.011781582478043524 0.057476361276290258 -0.017682953659162334 -0.040902517288786737 0.017487791850132658 -0.030724816155779541 0.00047404356229244546 -0.027863180748106703 -0.015725571484816989 0.04225770964232866 -0.035685444952328352 -0.039305809184671636 -0.046785224585208035 -0.053071676003861701 -0.017165003342590603 -0.025438501045103035 0.057134277687912863 0.060380990396455482 0.060962409067208415 0.031442020927724308 0.041118549026150558
leaf_weight=9.3333392143249494 7.3552380502224031 14.174921333789824 10.914420127868651 147.94907918572426 7.800341844558714 19.662181586027145 8.777556926012041 8.5922756493091565 8.9552756547927839 7.4535510241985312 12.703764528036116 9.5113877356052381 7.4324018955230704 18.434140920639038 7.5667426884174374 17.576117068529129 84.26183944940567 10.761291891336443 11.185938298702238 10.781291902065275 18.993446856737137 9.6785278320312482 7.7665559947490683 11.327442854642866 13.02672052383423 56.420005351305008 8.1256424188613909 27.968890249729156 10.371285587549211 13.99922603368759 99.25639596581459 16.445981323719025 7.3218378722667685 26.188867300748825 167.4874911904335 9.1262692213058454 16.537630140781403 16.279661357402802 17.95752289891243 28.305164366960526 7.8170322477817535 45.433986872434616 12.67190110683441 8.5750119090080243
leaf_count=26 20 39 32 400 21 56 24 24 24 20 34 26 20 53 21 50 234 31 30 30 55 26 21 31 35 161 23 77 29 39 289 46 20 75 492 26 47 46 51 76 21 122 34 23
internal_value=-2.21038e-05 -0.00951418 -0.0172986 0.0492877 0.0159257 -0.0219959 0.029082 0.0383916 0.00293522 0.0393092 -0.00307505 0.0452449 -0.0109401 -0.0243306 -0.0297896 -0.0140239 -0.00677172 0.00156854 0.0107141 -0.0213907 -0.0140367 -0.0118777 -0.0293749 -0.0227504 0.0502848 -0.0250825 -0.00340536 0.00734058 -0.00835347 -0.0146127 -0.032302 -0.0302542 -0.0332442 -0.0184316 -0.0350787 -0.0280033 -0.0378911 -0.0301942 -0.03742 0.0499212 0.0362498 0.0539249 0.0450044 0.057986
internal_weight=1098.27 921.131 766.684 177.134 94.8065 671.878 154.447 52.5148 43.5994 110.847 29.1853 96.6726 34.6441 27.2117 339.28 332.598 168.041 122.655 95.4478 164.557 114.164 42.2917 45.3863 32.6131 87.1612 75.4135 29.6916 38.7502 21.6987 22.1249 309.588 27.2073 300.255 33.5107 266.744 16.4815 50.3934 33.8558 37.6197 43.9225 15.6174 79.7076 25.6986 54.009
internal_count=3080 2600 2180 480 260 1920 420 142 121 299 80 260 97 77 985 935 469 341 264 466 323 118 128 92 234 216 83 107 60 62 902 77 876 95 781 46 143 96 107 118 42 214 69 145
is_linear=0
shrinkage=0.05


Tree=17
num_leaves=45
num_cat=0
split_feature=0 24 20 13 24 25 3 13 12 1 12 2 20 2 13 1 13 3 20 0 24 5 20 14 4 20 3 5 4 24 20 3 13 20 3 3 9 13 11 1 3 13 13 5
split_gain=90.4549 67.1093 71.5344 22.2749 42.1263 18.8238 14.3817 15.8416 11.8094 23.9948 12.6398 41.0721 10.9832 15.2363 10.7319 10.6623 9.74516 8.08751 8.75515 6.95963 6.95936 6.44926 5.9156 12.8858 5.41837 4.43991 10.2107 5.51948 4.22545 3.31608 3.27826 2.9212 9.61205 2.53067 1.59409 1.52927 0.667265 0.428916 0.404446 0.364411 0.318606 0.0413616 1.03137 0.0368607
threshold=204.07000000000002 14.500000000000002 12.500000000000002 43.881686183481023 11.500000000000002 7.5000000000000009 51.720175844371312 78.77529945790819 11.639120810046965 15.355430621037458 69.6456746398771 153.26660860377029 1.0000000180025095e-35 11.676727776895385 39.142272386507265 178.26113944200046 8.9211032489469861 59.812604928606568 5.5000000000000009 67.870000000000019 12.500000000000002 1.0723791718647246 8.5000000000000018 1.0000000180025095e-35 4.1239285714285687 19.500000000000004 44.919484257566133 0.94548476973839624 0.34928571428571281 10.500000000000002 1.0000000180025095e-35 40.775775994426972 46.365443354076469 13.500000000000002 22.499676241513985 45.986720900563171 69.42581101245689 48.175708254346425 11.60258534328654 382.2693460088264 74.78638171822918 48.451266398850088 46.730338576810688 0.60250207397989064
decision_type=2 2 2 2 2 2 2 2 2 2 2 2 2 2 2 2 2 2 2 2 2 2 2 2 2 2 2 2 2 2 2 2 2 2 2 2 2 2 2 2 2 2 2 2
left_child=1 2 3 8 17 21 12 20 30 14 16 -12 13 -6 29 -14 -11 18 19 -5 -8 43 24 35 31 33 27 28 -27 -10 38 32 34 -4 39 -24 41 -35 -1 -2 -19 42 -33 -3
right_child=22 5 25 4 6 -7 7 -9 9 10 11 -13 15 -15 -16 -17 -18 40 -20 -21 -22 -23 23 -25 -26 26 -28 -29 -30 -31 -32 36 -34 37 -36 -37 -38 -39 -40 -41 -42 -43 -44 -45
leaf_value=0.082842396895989087 -0.026517175407406404 -0.0041236641574520028 -0.003319874448763221 -0.0041787773358809453 0.070296537413703827 -0.042574975662586785 -0.022509146630159124 0.070529777559535614 0.00082477055159190004 0.023318934486555878 -0.018174711307356633 0.048421874474443183 0.06172579192950331 -0.014154201765642943 0.042464882969259328 0.012831122458992417 0.052813287090772404 -0.041804952659490219 0.037080136412856117 -0.04504636288233213 0.011557221933935435 0.052149966369627723 -0.010838979394536976 0.031971838006718274 0.011615397940797219 -0.0017353108683205048 -0.042614962394186343 -0.028329965853210827 0.051746943128919913 -0.041925716108227408 0.037126649102436619 -0.04147029024442498 0.035015870064659671 -0.042402709715610387 -0.04143359342556889 -0.042531785184204085 -0.023659751472657115 -0.028233247532387897 0.060075885305125858 -0.0069096130194244076 -0.024667902340510493 -0.043380445168511569 -0.016197069057465412 -0.011814968050400224
leaf_weight=10.75904187560082 5.9018652439117414 6.0338685214519518 5.6560058593749991 42.195995062589645 7.4880059957504299 75.488988101482391 19.604012250900269 9.7474867105483991 5.8118326961994233 43.425665289163589 41.868180572986603 51.368660569190979 47.890358954668045 17.780137538909912 6.1692016124725333 14.9630891084671 84.234090119600296 23.183969467878345 9.5249073505401594 13.896129310131071 62.107351034879684 6.7109737694263449 5.8288190364837673 11.307372748851774 5.9607160985469809 6.599114805459978 16.556752756237984 6.3671849071979514 7.7949686348438263 17.397975564002991 10.399324953556059 34.361879572272301 5.7020829021930686 39.336331561207771 24.453742355108261 14.989134043455122 7.4221698045730582 10.082491517066954 7.3821762800216666 5.506799191236496 5.532141536474227 66.462791711091995 5.5555407106876364 5.9925646185874939
leaf_count=30 21 20 18 138 21 294 62 27 18 129 134 151 136 56 18 45 242 83 28 47 194 20 20 35 20 21 63 22 24 60 30 131 18 144 90 57 26 37 21 20 20 249 20 20
internal_value=-1.77152e-05 0.00794201 0.0137053 0.0205179 0.0103578 -0.0314364 0.0245759 0.0105939 0.0304742 0.026943 0.032595 0.0184755 0.0390024 0.0108534 -0.0153505 0.0502041 0.0428455 -0.0166535 -0.00685252 -0.0144543 0.00330545 0.0131608 -0.0304529 -0.0105915 -0.0343679 -0.0269743 -0.0133927 0.00976452 0.0270397 -0.0310487 0.0610635 -0.0361705 -0.0244112 -0.0360454 -0.0340701 -0.0339914 -0.0403964 -0.0396757 0.0742323 -0.0176296 -0.0387741 -0.0414938 -0.0381271 -0.00843426
internal_weight=932.802 739.349 645.123 552.73 273.914 94.2264 179.58 91.4588 278.816 250.276 220.897 93.2368 88.1216 25.2681 29.379 62.8534 127.66 94.3331 65.617 56.0921 81.7114 18.7374 193.453 32.1253 161.328 92.3929 37.318 20.7613 14.3941 23.2098 28.5405 155.367 41.5645 55.0748 35.8624 20.818 113.802 49.4188 18.1412 11.4087 28.7161 106.38 39.9174 12.0264
internal_count=3080 2373 2019 1690 857 354 541 283 833 752 656 285 258 77 96 181 371 316 213 185 256 60 707 112 595 329 130 67 45 78 81 575 149 199 131 77 426 181 51 41 103 400 151 40
is_linear=0
shrinkage=0.05


Tree=18
num_leaves=39
num_cat=0
split_feature=24 15 13 24 13 15 20 13 4 8 12 12 15 11 0 25 0 13 20 11 15 13 0 14 16 9 13 9 16 16 20 12 13 24 25 24 4 15
split_gain=66.7133 36.5382 41.2934 45.966 46.7789 40.0962 24.2645 22.3306 17.4114 20.614 28.8336 21.3276 16.996 13.5817 22.9678 12.9501 12.3881 12.8293 11.1452 10.4473 9.50334 9.37435 8.51979 17.4339 5.31182 5.24491 7.85164 4.67172 4.11108 2.1238 3.09417 10.2134 2.09236 1.88415 3.48573 0.182767 0.0314661 0.00354042
threshold=14.500000000000002 -0.020279813665820042 1.0000000180025095e-35 12.500000000000002 36.112619249995149 -0.0031421746408875979 13.500000000000002 37.563328894512331 0.10428571428571455 175.82056205639967 202.54525417680767 153.32946807184121 0.032068211563474454 15.606638644955046 11.675000000000002 7.5000000000000009 15.925000000000002 32.104269720264149 6.5000000000000009 916.35142473744315 0.0052122624625006121 52.352022232669015 68.785000000000011 -1.0000000180025095e-35 -0.099539596602053734 60.422916673150191 47.609587242750429 56.943743312796265 -2.6305812824352839 -1.2709928664413594 11.500000000000002 69.915617906994498 34.465541540008815 11.500000000000002 37.500000000000007 11.500000000000002 0.48392857142856988 0.0029026974618412455
decision_type=2 2 2 2 2 2 2 2 2 2 2 2 2 2 2 2 2 2 2 2 2 2 2 2 2 2 2 2 2 2 2 2 2 2 2 2 2 2
left_child=1 16 22 5 28 6 13 36 20 11 -11 -10 18 14 -4 25 17 -1 19 -6 24 -15 23 27 -7 26 -2 35 -5 30 31 -18 -30 -24 -35 -3 -8 -20
right_child=15 2 3 4 12 8 7 -9 9 10 -12 -13 -14 21 -16 -17 29 -19 37 -21 -22 -23 33 -25 -26 -27 -28 -29 32 -31 -32 -33 -34 34 -36 -37 -38 -39
leaf_value=-0.037502140488441138 -0.027749776507161868 -0.043278817175280829 -0.038257750278721074 0.023043198164852747 -0.015951334763053999 0.060989442724104462 0.077771772913543952 -0.036748268106141867 0.019575568074028351 0.084000595335945782 0.02469623409886414 -0.039303536721118977 0.058984121389088019 -0.032335654405827537 0.069343275313139482 -0.042078970706536364 -0.0093585029237554188 0.058334297145897385 -0.043002211376377338 0.051354788376870533 0.085796605348127816 0.0059575935464505347 -0.04268332824598238 0.048476405329125193 -0.0019336515261826012 -0.036694485095254338 0.041603098520598167 0.0060474041136706728 0.077111863245084608 0.074581724011258718 0.074417568206196646 0.067116911546396624 0.040846011243291472 -0.038791713147897894 0.0045225610776056966 -0.028861657940306207 0.060207692133142525 -0.031622712208135277
leaf_weight=7.962995380163191 6.5802912861108842 14.783221125602727 8.623464763164522 10.461560696363451 168.6698139756918 6.6028326451778412 10.207816630601888 6.4686115682125083 93.546507239341736 28.246349543333054 76.082309752702713 18.265620082616806 7.0216304063796988 65.337399989366531 11.312550455331801 99.339097291231155 7.146594405174258 6.0475120842456818 38.959914535284042 5.8414788544178 19.939415544271469 20.835932999849319 47.520253673195839 10.108924716711043 6.4042966663837415 7.1413638889789572 10.22247940301895 7.5147792696952811 11.704536110162737 14.783277750015261 8.4838616251945478 10.635619789361952 7.8606871068477622 12.79197880625725 6.9298010170459738 6.9687737822532645 6.9572675526142111 5.1643793731927863
leaf_count=29 24 54 30 31 582 20 28 22 289 81 232 63 20 224 31 400 21 17 148 18 57 69 174 31 20 25 31 25 32 40 23 29 23 48 24 25 20 20
internal_value=7.66329e-05 0.00538297 0.00245354 0.00729853 -0.00906722 0.0183569 -0.00414667 0.0415095 0.0300955 0.0248745 0.0408655 0.00988588 -0.0168901 -0.0143922 0.0225915 -0.034129 0.0446478 0.00363071 -0.0193755 -0.0136416 0.0640169 -0.0230226 -0.0263134 -0.00765542 0.0298483 -0.000900327 0.0141439 -0.027313 0.049418 0.0584829 0.0489839 0.0362217 0.0630774 -0.0371373 -0.0233737 -0.039042 0.0713323 -0.0418579
internal_weight=919.475 796.192 741.132 634.514 255.684 378.83 129.743 23.6337 249.087 216.141 104.329 111.812 225.657 106.109 19.936 123.283 55.0599 14.0105 218.636 174.511 32.9465 86.1733 106.618 39.3757 13.0071 23.9441 16.8028 29.2668 30.0268 41.0494 26.2661 17.7822 19.5652 67.242 19.7218 21.752 17.1651 44.1243
internal_count=3080 2600 2441 2060 874 1186 424 70 762 665 313 352 788 354 61 480 159 46 768 600 97 293 381 135 40 80 55 104 86 113 73 50 55 246 72 79 48 168
is_linear=0
shrinkage=0.05


Tree=19
num_leaves=60
num_cat=0
split_feature=2 23 5 3 18 1 12 25 18 1 7 12 3 13 13 13 12 2 16 15 23 12 2 15 15 13 3 15 7 15 9 5 25 7 20 7 13 15 13 3 7 7 18 12 12 12 23 5 3 18 5 20 7 1 9 17 11 2 13
split_gain=91.2037 41.1351 31.5278 19.0792 18.4955 15.4327 25.0272 13.5506 12.3496 11.8509 15.3488 10.9541 10.2237 9.76069 9.05942 10.1182 8.75274 14.5051 8.43257 6.50669 6.33992 5.73536 5.64065 11.5509 6.41105 8.28461 8.84889 6.31674 5.61923 5.32448 5.53655 5.11896 4.22959 5.06381 3.82138 3.6353 3.45994 3.32317 3.0071 2.90324 2.64131 5.42911 2.54963 2.33349 2.33185 1.94857 1.85819 1.56846 1.55819 2.11231 1.53932 1.18918 0.975003 4.88097 0.913246 0.548978 0.507288 1.99034 0.0681225
threshold=378.67683689792221 50.500000000000007 1.089024507977445 45.055183282282258 1.0000000180025095e-35 917.41684141145242 919.13768549648989 7.5000000000000009 0.42219750085129865 195.79001104735326 154.01292590636874 176.53484633428346 45.247745168746363 53.271113885079806 36.357448428827702 19.264163513506762 202.28301974208532 204.23184280632259 -1.9833218925078564 0.0037091309991769783 37.500000000000007 177.35670855838285 199.8374337803383 -0.0091701547771179445 -0.007698241897419798 47.270665840365524 41.019563295831574 -0.036488089056194557 11.475594518856616 0.01160358686854982 51.920968568094693 1.1369037545345817 42.500000000000007 154.55648035611119 3.5000000000000004 16.909730087068141 64.187562343863746 -0.0049116344917120632 42.201783389481307 47.784304348075928 202.55825711442375 373.0267666933334 -0.37727012994895393 177.04718504274214 202.1711913358979 17.016165500286927 33.500000000000007 0.65732891127945969 62.379003775599159 0.71964377779819544 1.5708805770597691 2.5000000000000004 904.12990733392849 910.96003350876833 59.055514942257396 0.35000000000000003 382.51678001294187 381.81731735748093 52.698879599993369
decision_type=2 2 2 2 2 2 2 2 2 2 2 2 2 2 2 2 2 2 2 2 2 2 2 2 2 2 2 2 2 2 2 2 2 2 2 2 2 2 2 2 2 2 2 2 2 2 2 2 2 2 2 2 2 2 2 2 2 2 2
left_child=1 2 4 11 22 18 12 55 43 10 20 31 -7 14 15 39 -11 -18 -2 37 35 -13 24 44 27 26 -26 -1 -22 30 36 42 33 -16 50 -6 -15 -20 -34 -9 -25 -42 -3 58 -24 -29 -17 -8 -12 -50 -31 -27 56 -54 -19 -4 57 -39 -5
right_child=5 3 7 8 9 6 47 13 -10 16 48 21 -14 29 32 46 17 54 19 -21 28 -23 23 40 25 51 -28 45 -30 34 -32 -33 38 -35 -36 -37 -38 52 -40 -41 41 -43 -44 -45 -46 -47 -48 -49 49 -51 -52 -53 53 -55 -56 -57 -58 -59 -60
leaf_value=0.0012865179874960212 0.0032596388306601735 0.025905387332489174 -0.02630979384250224 0.059711474541098333 -0.026449161079684265 0.019825146903841653 0.023442215700162961 -0.03130486178842911 -0.0030983410911229955 -0.049178064369002406 0.016699510186581657 -0.049727582142143678 -0.050311856262233556 0.033028492436455482 -0.025621427534641396 0.014861934701998437 0.037737308915136505 -0.051797211987072281 0.02186103675412971 0.0059016883878028632 0.025828778090029099 0.0027860795532133158 0.043384745436891289 -0.047564258642696033 -0.02760992838615178 -0.045635472513264677 0.0016196100839416519 -0.033392109910676093 -0.018529604185091742 0.033735588844781915 -0.018333891055140911 0.048548101688331777 -0.014604912890871697 0.011612001950042144 0.0045195768688621315 0.0082905283733677535 -0.0042557843525996755 0.060254542869835816 0.022381502741357414 0.0091161373240993323 0.0087947647555799511 -0.04527557473480727 -0.011906558957829697 0.03014581048739148 0.0039332058976726701 -0.047561076378618061 0.037911361033954122 0.053219523719909081 0.058640177222458345 0.02140583108482657 0.059056320726343425 -0.027028678984277112 0.0063099222576503966 0.056335251290058987 -0.024217593551140299 -0.046670922035597071 0.0591379655795536 0.036059514644134059 0.04637317151552383
leaf_weight=9.7737128138542158 13.952209919691084 7.3432369530200985 9.119536370038988 30.992133975028992 8.37395992875099 7.3628541231155422 7.4640367031097439 11.110260784626009 12.95607480406761 25.40341728925705 9.8676935136318225 12.726287662982942 16.562797993421555 20.564774453639988 44.702877789735794 15.100093394517897 10.316558957099916 7.6750067472457868 11.662221580743788 10.238351345062254 7.5614439845085135 8.4362222254276258 8.4779477119445783 10.476205676794054 51.694964706897736 28.05778831243515 51.149072557687759 57.118044525384903 92.204635500907898 15.850663542747499 11.851526856422423 9.5203270912170392 8.9567519426345843 11.201248794794081 7.6214314103126517 64.91443920135498 8.5528473258018476 19.950626105070114 13.550751984119414 7.0409842431545249 10.089535236358644 8.2778808772563917 10.88112509250641 11.464947432279585 7.2237039506435385 51.264082789421082 24.930610150098801 15.877506047487257 9.6393539905548113 7.4344179630279532 12.442671179771422 15.781337410211561 7.398907124996188 15.879388958215712 7.0054437816143036 8.7401735782623273 39.058839470148087 18.821103513240814 7.3648813664913169
leaf_count=28 38 20 26 84 23 20 20 33 36 75 27 38 49 57 129 43 28 22 32 28 21 23 23 30 151 83 148 171 264 44 33 26 26 31 22 180 24 54 38 20 29 24 30 31 20 153 70 43 26 20 34 47 20 43 20 25 106 51 20
internal_value=-3.85932e-05 -0.0065864 -0.0106012 0.0217917 -0.017019 0.0320076 0.00722544 0.00490736 0.0400125 -0.00688501 -0.0013931 -0.00152868 -0.0285272 0.00843201 0.000370007 0.0153394 -0.0285328 -0.00724021 0.0405122 0.0446909 -0.00688754 -0.0286437 -0.0251998 -0.00855164 -0.0279768 -0.02089 -0.0130367 -0.0367074 -0.015095 0.0226711 0.0101435 0.0190026 -0.0106791 -0.0180644 0.0367551 0.0042224 0.0219286 0.0481599 0.00744228 -0.0153873 -0.0273894 -0.0154163 0.00311457 0.0513073 0.0256908 -0.0401777 0.0294001 0.0440514 0.0336096 0.0429374 0.0452159 -0.0391279 0.0511193 0.0407438 -0.0392275 -0.0367569 0.054102 0.0487611 0.0574077
internal_weight=1087.03 902.803 791.118 111.685 559.781 184.229 47.2672 231.337 62.778 250.396 199.996 48.9072 23.9257 213.477 136.594 58.1819 50.4004 24.997 136.962 123.009 173.054 21.1625 309.384 44.5453 264.839 146.683 102.844 118.156 99.7661 76.8839 40.9691 27.7447 78.4116 55.9041 35.9148 73.2884 29.1176 112.771 22.5075 18.1512 28.8436 18.3674 18.2244 49.822 15.7017 108.382 40.0307 23.3415 26.9415 17.0738 28.2933 43.8391 101.109 23.2783 14.6805 17.8597 77.8306 38.7717 38.357
internal_count=3080 2576 2268 308 1613 504 132 655 171 706 561 137 69 604 390 166 145 70 372 334 488 61 907 126 781 429 299 352 285 214 114 76 224 160 100 203 81 306 64 53 83 53 50 135 43 324 113 63 73 46 78 130 274 63 42 51 211 105 104
is_linear=0
shrinkage=0.05


Tree=20
num_leaves=43
num_cat=0
split_feature=0 24 20 25 24 3 18 18 5 2 12 4 14 0 24 20 17 20 18 20 4 2 4 4 5 20 12 2 3 18 16 0 4 4 18 16 3 12 25 9 9 20
split_gain=83.3217 60.8296 64.7209 17.7687 15.6435 23.9575 15.0912 14.118 16.3584 13.0526 19.4615 19.0857 14.7187 12.9725 10.9747 9.34982 7.89934 7.55876 7.16096 20.1046 9.51626 7.14451 8.00357 6.26124 5.78918 5.38443 4.40512 5.15118 15.3522 7.5125 4.38723 3.58674 3.25399 4.68731 3.2302 1.82921 0.847992 2.03323 0.765846 0.56376 0.533011 0.247023
threshold=204.07000000000002 14.500000000000002 12.500000000000002 7.5000000000000009 12.500000000000002 34.846659920734112 0.20453589500563699 0.020675260018559773 0.075278841507922065 16.81445872440376 15.741409415172248 0.3074999999999975 -1.0000000180025095e-35 200.36500000000004 11.500000000000002 3.5000000000000004 1.0000000180025095e-35 2.5000000000000004 -0.27156413615968039 6.5000000000000009 1.0971428571428583 200.66556739053976 0.078928571428571084 3.7617857142857241 1.0723791718647246 7.5000000000000009 176.53484633428346 175.40187111060985 45.055183282282258 -0.38445140782236126 -1.5459291297107076 198.54000000000005 0.34321428571428625 0.77785714285714713 0.23280641505985203 -2.8085839374139612 46.733028087075461 382.25717984026107 42.500000000000007 69.42581101245689 41.267126687753183 10.500000000000002
decision_type=2 2 2 2 2 2 2 2 2 2 2 2 2 2 2 2 2 2 2 2 2 2 2 2 2 2 2 2 2 2 2 2 2 2 2 2 2 2 2 2 2 2
left_child=1 2 4 24 7 15 21 9 -9 10 12 16 -1 17 -13 38 -11 -8 19 35 -21 22 -7 36 34 31 27 32 29 -29 -12 -10 -4 -34 -3 -2 37 -20 -6 41 -39 -38
right_child=18 3 26 -5 5 6 13 8 25 11 30 14 -14 -15 -16 -17 -18 -19 23 20 -22 -23 -24 -25 -26 -27 -28 28 -30 -31 -32 -33 33 -35 -36 -37 39 40 -40 -41 -42 -43
leaf_value=0.04995494941267712 -0.014532055623366411 0.016152092964287663 -0.043254544205724506 -0.041902862847742396 -0.041599367555845805 0.035299566786572048 0.022950841026807695 0.0709926675142903 -0.01028302318719072 0.070222869406294519 0 -0.0022425260793449832 -0.0089999517094767403 0.075629639278589261 0.036830184916827678 0.026695148214665194 0.034200466712823743 -0.014390199048250132 -0.0011639567726307648 0.069657468554057703 -0.007201093133296985 0.0062542106727572089 0.062717230056650725 0.0096411742376287437 0.048791076997291197 0.032678789101562154 -0.043441944531936928 -0.0088710083547302969 -0.041823618595087882 0.059943520331176448 -0.046764309312014335 0.017592964049112262 0.021174374985504049 -0.042050825459506849 -0.035115550510136262 -0.042642613224222747 -0.042168857341920295 -0.023093191962443752 -0.018665284472678508 -0.025160224325059901 -0.04224860647359889 -0.028935083875542444
leaf_weight=22.989995896816254 8.6091215461492485 6.2006312906742114 22.534615308046341 72.350881353020668 11.617306143045431 49.953854024410248 33.874208092689514 7.5515857040882102 104.58138743042946 27.045287191867828 7.0601043403148678 47.604367733001709 19.278273403644562 8.079631954431532 28.551716774702072 9.7442644834518415 37.629339456558228 22.299251407384872 5.5759200900793102 8.305378705263136 7.495152920484542 10.241788446903227 61.563370257616043 7.0951919853687277 6.8487657606601706 8.9933250844478589 26.685249730944633 6.8194123208522788 13.877489000558851 8.952192962169649 17.109336853027344 12.760165125131605 5.7744944393634778 5.662654310464859 5.7856536209583282 23.916260480880741 90.277610838413239 7.4987015724182156 7.1437595784664145 8.143510550260542 14.147693216800688 7.3109006434679022
leaf_count=64 31 20 84 294 39 146 105 22 342 76 22 148 62 22 85 28 108 70 19 24 25 30 175 24 20 29 99 23 55 27 56 38 20 21 20 92 352 28 23 29 55 28
internal_value=-2.54028e-05 0.00755358 0.0129563 -0.0306375 0.0193419 0.0299375 0.0364831 0.012658 0 0.0208297 0.00247337 0.029446 0.0229902 0.0167207 0.0123698 -0.0125797 0.0494265 0.00803944 -0.0296988 -0.0129037 0.0330683 0.0468485 0.050523 -0.0354452 0.0123648 -0.00429497 -0.0262586 -0.0189159 -0.00347409 0.0300057 -0.033148 -0.00719671 -0.0321963 -0.00978887 -0.00826636 -0.0354227 -0.0378942 -0.0290616 -0.033277 -0.0400915 -0.0359795 -0.0412593
